{"learner":{"attributes":{"best_iteration":"199","best_ntree_limit":"200"},"feature_names":["no_of_dependents","income_annum","loan_amount","loan_term","cibil_score","residential_assets_value","commercial_assets_value","luxury_assets_value","bank_asset_value","education_ Not Graduate","self_employed_ Yes"],"feature_types":["int","int","int","int","int","int","int","int","int","int","int"],"gradient_booster":{"model":{"gbtree_model_param":{"num_parallel_tree":"1","num_trees":"200"},"iteration_indptr":[0,1,2,3,4,5,6,7,8,9,10,11,12,13,14,15,16,17,18,19,20,21,22,23,24,25,26,27,28,29,30,31,32,33,34,35,36,37,38,39,40,41,42,43,44,45,46,47,48,49,50,51,52,53,54,55,56,57,58,59,60,61,62,63,64,65,66,67,68,69,70,71,72,73,74,75,76,77,78,79,80,81,82,83,84,85,86,87,88,89,90,91,92,93,94,95,96,97,98,99,100,101,102,103,104,105,106,107,108,109,110,111,112,113,114,115,116,117,118,119,120,121,122,123,124,125,126,127,128,129,130,131,132,133,134,135,136,137,138,139,140,141,142,143,144,145,146,147,148,149,150,151,152,153,154,155,156,157,158,159,160,161,162,163,164,165,166,167,168,169,170,171,172,173,174,175,176,177,178,179,180,181,182,183,184,185,186,187,188,189,190,191,192,193,194,195,196,197,198,199,200],"tree_info":[0,0,0,0,0,0,0,0,0,0,0,0,0,0,0,0,0,0,0,0,0,0,0,0,0,0,0,0,0,0,0,0,0,0,0,0,0,0,0,0,0,0,0,0,0,0,0,0,0,0,0,0,0,0,0,0,0,0,0,0,0,0,0,0,0,0,0,0,0,0,0,0,0,0,0,0,0,0,0,0,0,0,0,0,0,0,0,0,0,0,0,0,0,0,0,0,0,0,0,0,0,0,0,0,0,0,0,0,0,0,0,0,0,0,0,0,0,0,0,0,0,0,0,0,0,0,0,0,0,0,0,0,0,0,0,0,0,0,0,0,0,0,0,0,0,0,0,0,0,0,0,0,0,0,0,0,0,0,0,0,0,0,0,0,0,0,0,0,0,0,0,0,0,0,0,0,0,0,0,0,0,0,0,0,0,0,0,0,0,0,0,0,0,0,0,0,0,0,0,0],"trees":[{"base_weights":[4.8844692E-1,-1.5512465E0,1.9757453E0,1.24590166E-1,-1.9930009E0,5E-1,1.9777216E0,-1.6793893E-1,1.7446809E0,1.9417475E-1,-1.4E0,5E-1,1.8139535E0,-2.0512821E-1,1.3333334E0,5E-1,-1.5714285E0,3.4862384E-1,-1.372549E0,1.5102041E0,-2.2222222E-1,-7.368421E-1,-1.804878E0,2.247191E-2,1.5E0,-1.6842105E0,-3.529412E-1,-0E0,1.6444445E0,-1.4666667E0,1E0],"categories":[],"categories_nodes":[],"categories_segments":[],"categories_sizes":[],"default_left":[1,1,1,1,0,0,0,1,1,1,1,0,0,1,1,0,1,1,1,1,0,1,0,0,0,0,0,0,0,0,0],"id":0,"left_children":[1,3,5,7,-1,-1,-1,9,11,13,15,-1,-1,17,19,-1,21,23,25,27,-1,29,-1,-1,-1,-1,-1,-1,-1,-1,-1],"loss_changes":[2.5960625E3,2.6749957E2,4.5410156E-1,3.642968E1,0E0,0E0,0E0,2.949442E1,1.0613632E-1,2.3699278E1,5.6714306E0,0E0,0E0,2.5690508E1,4.0498867E0,0E0,1.3977623E0,1.0199309E1,3.4571724E0,2.4834461E0,0E0,7.4877195E0,0E0,0E0,0E0,0E0,0E0,0E0,0E0,0E0,0E0],"parents":[2147483647,0,0,1,1,2,2,3,3,7,7,8,8,9,9,10,10,13,13,14,14,16,16,17,17,18,18,19,19,21,21],"right_children":[2,4,6,8,-1,-1,-1,10,12,14,16,-1,-1,18,20,-1,22,24,26,28,-1,30,-1,-1,-1,-1,-1,-1,-1,-1,-1],"split_conditions":[5.495E2,5E0,3.5E5,2.625E7,-1.993001E-1,5E-2,1.9777216E-1,7.05E6,3.35E6,1.605E7,3.24E2,5E-2,1.8139535E-1,3.85E6,2.365E7,5E-2,7.6E6,1.03E7,1.455E7,9.5E5,-2.2222223E-2,2.175E7,-1.804878E-1,2.247191E-3,1.5E-1,-1.6842106E-1,-3.529412E-2,-0E0,1.6444445E-1,-1.4666668E-1,1E-1],"split_indices":[4,3,7,2,0,0,0,1,5,2,4,0,0,1,7,0,1,2,2,6,0,2,0,0,0,0,0,0,0,0,0],"split_type":[0,0,0,0,0,0,0,0,0,0,0,0,0,0,0,0,0,0,0,0,0,0,0,0,0,0,0,0,0,0,0],"sum_hessian":[8.5375E2,3.6E2,4.9375E2,7.525E1,2.8475E2,1E0,4.9275E2,6.45E1,1.075E1,5.05E1,1.4E1,1E0,9.75E0,3.8E1,1.25E1,1E0,1.3E1,2.625E1,1.175E1,1.125E1,1.25E0,3.75E0,9.25E0,2.125E1,5E0,8.5E0,3.25E0,1E0,1.025E1,2.75E0,1E0],"tree_param":{"num_deleted":"0","num_feature":"11","num_nodes":"31","size_leaf_vector":"0"}},{"base_weights":[4.4410083E-1,-1.4090438E0,1.796698E0,1.14550225E-1,-1.8128741E0,8.038203E-1,1.8006023E0,-1.5310179E-1,1.6012738E0,2.9790175E-1,1.0070297E0,1.7709848E-1,-1.2800711E0,-1.5971759E-1,1.3020478E0,2.0059291E-2,-1.4822307E0,1.7462367E-1,-1.5430357E0,1.5511062E0,3.4122556E-1,-7.5776386E-1,-1.6460451E0,3.2275423E-1,-1.0907863E0,-6.9925463E-1,1.1419166E0,-1.2401608E0,2.2189981E-1],"categories":[],"categories_nodes":[],"categories_segments":[],"categories_sizes":[],"default_left":[1,1,1,1,0,1,0,1,0,0,0,1,1,1,1,0,1,1,0,0,1,1,0,0,0,0,0,0,0],"id":1,"left_children":[1,3,5,7,-1,9,-1,11,-1,-1,-1,13,15,17,19,-1,21,23,-1,-1,25,27,-1,-1,-1,-1,-1,-1,-1],"loss_changes":[2.1251401E3,2.2038916E2,4.5202637E-1,3.0455048E1,0E0,8.301854E-2,0E0,2.450753E1,0E0,0E0,0E0,1.9661427E1,3.9478512E0,1.8955622E1,2.3278065E0,0E0,2.8536034E-1,6.6195955E0,0E0,0E0,3.914114E0,2.2764692E0,0E0,0E0,0E0,0E0,0E0,0E0,0E0],"parents":[2147483647,0,0,1,1,2,2,3,3,5,5,7,7,11,11,12,12,13,13,14,14,16,16,17,17,20,20,21,21],"right_children":[2,4,6,8,-1,10,-1,12,-1,-1,-1,14,16,18,20,-1,22,24,-1,-1,26,28,-1,-1,-1,-1,-1,-1,-1],"split_conditions":[5.495E2,5E0,-5E4,2.625E7,-1.8128741E-1,2.35E6,1.8006024E-1,7.05E6,1.6012739E-1,2.9790176E-2,1.00702964E-1,1.665E7,3.435E2,5.05E6,2.165E7,2.0059291E-3,7.45E6,6.85E6,-1.5430358E-1,1.5511063E-1,2.165E7,1.79E7,-1.6460451E-1,3.2275423E-2,-1.0907864E-1,-6.9925465E-2,1.14191666E-1,-1.24016084E-1,2.218998E-2],"split_indices":[4,3,5,2,0,6,0,1,0,0,0,2,4,1,7,0,1,6,0,0,2,2,0,0,0,0,0,0,0],"split_type":[0,0,0,0,0,0,0,0,0,0,0,0,0,0,0,0,0,0,0,0,0,0,0,0,0,0,0,0,0],"sum_hessian":[8.458219E2,3.5685965E2,4.8896228E2,7.491864E1,2.81941E2,2.7255561E0,4.8623672E2,6.424903E1,1.0669609E1,1.4877E0,1.2378561E0,5.034181E1,1.3907218E1,3.9402504E1,1.0939305E1,1.9926763E0,1.1914541E1,3.243652E1,6.9659843E0,8.199524E0,2.7397814E0,3.2347314E0,8.679811E0,2.9704243E1,2.732277E0,1.2465732E0,1.4932082E0,1.9892827E0,1.2454488E0],"tree_param":{"num_deleted":"0","num_feature":"11","num_nodes":"29","size_leaf_vector":"0"}},{"base_weights":[4.1001177E-1,-1.2996376E0,1.6616045E0,1.0230798E-1,-1.6773533E0,7.626513E-1,1.6651211E0,-1.4363186E-1,1.4827687E0,2.8057778E-1,9.5819384E-1,1.5975423E-1,-1.1874987E0,-1.7896505E-1,1.1369E0,1.8723162E-2,-1.3781639E0,2.8885737E-1,-1.1774093E0,1.2925522E0,-2.0298518E-1,-7.10674E-1,-1.5288979E0,-1.0498848E-2,1.35787E0,-1.4688867E0,-2.5595132E-1,2.9925358E-1,1.4038147E0,-1.1680634E0,2.0960876E-1],"categories":[],"categories_nodes":[],"categories_segments":[],"categories_sizes":[],"default_left":[1,1,1,1,0,1,0,1,0,0,0,1,1,1,1,0,1,1,1,1,0,1,0,0,0,0,0,0,0,0,0],"id":2,"left_children":[1,3,5,7,-1,9,-1,11,-1,-1,-1,13,15,17,19,-1,21,23,25,27,-1,29,-1,-1,-1,-1,-1,-1,-1,-1,-1],"loss_changes":[1.7706753E3,1.8544843E2,2.3986816E-1,2.5744871E1,0E0,8.051324E-2,0E0,2.0693142E1,0E0,0E0,0E0,1.7097986E1,3.4060555E0,1.8448816E1,3.0310345E0,0E0,1.9174576E-1,8.719437E0,2.9991894E0,9.09359E-1,0E0,2.0165558E0,0E0,0E0,0E0,0E0,0E0,0E0,0E0,0E0,0E0],"parents":[2147483647,0,0,1,1,2,2,3,3,5,5,7,7,11,11,12,12,13,13,14,14,16,16,17,17,18,18,19,19,21,21],"right_children":[2,4,6,8,-1,10,-1,12,-1,-1,-1,14,16,18,20,-1,22,24,26,28,-1,30,-1,-1,-1,-1,-1,-1,-1,-1,-1],"split_conditions":[5.495E2,5E0,-5E4,2.625E7,-1.6773532E-1,2.35E6,1.6651212E-1,7.05E6,1.4827687E-1,2.8057778E-2,9.5819384E-2,1.605E7,3.435E2,3.85E6,2.365E7,1.8723162E-3,7.45E6,1.03E7,1.455E7,1.05E6,-2.0298518E-2,1.79E7,-1.5288979E-1,-1.0498848E-3,1.35787E-1,-1.4688867E-1,-2.5595132E-2,2.992536E-2,1.4038147E-1,-1.1680634E-1,2.0960877E-2],"split_indices":[4,3,5,2,0,6,0,1,0,0,0,2,4,1,7,0,1,2,2,6,0,2,0,0,0,0,0,0,0,0,0],"split_type":[0,0,0,0,0,0,0,0,0,0,0,0,0,0,0,0,0,0,0,0,0,0,0,0,0,0,0,0,0,0,0],"sum_hessian":[8.2549243E2,3.4888477E2,4.7660764E2,7.420213E1,2.7468265E2,2.7061267E0,4.739015E2,6.3741962E1,1.0460175E1,1.4835584E0,1.2225684E0,5.0044228E1,1.3697734E1,3.7768833E1,1.2275395E1,1.9927335E0,1.1705001E1,2.6202368E1,1.1566463E1,1.10294485E1,1.2459469E0,3.2090838E0,8.495916E0,2.124367E1,4.9586983E0,8.33563E0,3.230833E0,1.4826512E0,9.546798E0,1.9638081E0,1.2452757E0],"tree_param":{"num_deleted":"0","num_feature":"11","num_nodes":"31","size_leaf_vector":"0"}},{"base_weights":[3.8331082E-1,-1.2120675E0,1.5561323E0,9.3751624E-2,-1.5719723E0,7.2484726E-1,1.5594217E0,-1.3328779E-1,1.3860263E0,2.6431936E-1,9.140905E-1,1.4761753E-1,-1.1098121E0,1.4572879E0,4.2623752E-1,-1.6351466E-1,1.0540793E0,2.1811292E-1,-1.2523786E0,2.6592225E-1,-1.0928955E0,1.3071765E0,1.3925807E-1,-1.3520746E0,-2.6583233E-1,-3.1921472E-2,1.1920509E0,-1.3693794E0,-2.3674817E-1,1.4626342E0,4.241035E-1,-1.089519E0,1.1070654E0],"categories":[],"categories_nodes":[],"categories_segments":[],"categories_sizes":[],"default_left":[1,1,1,1,0,1,0,1,1,0,0,1,1,0,0,1,1,0,1,1,1,1,1,0,0,0,0,0,0,0,0,0,0],"id":3,"left_children":[1,3,5,7,-1,9,-1,11,13,-1,-1,15,17,-1,-1,19,21,-1,23,25,27,29,31,-1,-1,-1,-1,-1,-1,-1,-1,-1,-1],"loss_changes":[1.4940889E3,1.5920676E2,1.2768555E-1,2.191666E1,0E0,7.925713E-2,0E0,1.7696009E1,1.4190483E-1,0E0,0E0,1.4419946E1,2.9984722E0,0E0,0E0,1.5646358E1,2.8379698E0,0E0,9.3375397E-1,7.518792E0,2.6004114E0,7.6586914E-1,5.898592E0,0E0,0E0,0E0,0E0,0E0,0E0,0E0,0E0,0E0,0E0],"parents":[2147483647,0,0,1,1,2,2,3,3,5,5,7,7,8,8,11,11,12,12,15,15,16,16,18,18,19,19,20,20,21,21,22,22],"right_children":[2,4,6,8,-1,10,-1,12,14,-1,-1,16,18,-1,-1,20,22,-1,24,26,28,30,32,-1,-1,-1,-1,-1,-1,-1,-1,-1,-1],"split_conditions":[5.495E2,5E0,-5E4,2.625E7,-1.5719722E-1,2.35E6,1.5594217E-1,7.05E6,1.675E7,2.6431937E-2,9.140905E-2,1.605E7,3.355E2,1.457288E-1,4.2623755E-2,3.85E6,2.165E7,2.1811292E-2,2.555E7,9E6,1.455E7,1.395E7,2.06E7,-1.3520746E-1,-2.6583234E-2,-3.1921472E-3,1.19205095E-1,-1.3693795E-1,-2.3674818E-2,1.4626342E-1,4.241035E-2,-1.08951904E-1,1.10706545E-1],"split_indices":[4,3,5,2,0,6,0,1,6,0,0,2,4,0,0,1,7,0,2,2,2,5,2,0,0,0,0,0,0,0,0,0,0],"split_type":[0,0,0,0,0,0,0,0,0,0,0,0,0,0,0,0,0,0,0,0,0,0,0,0,0,0,0,0,0,0,0,0,0],"sum_hessian":[7.9650275E2,3.374454E2,4.5905737E2,7.3069954E1,2.6437546E2,2.6817236E0,4.5637564E2,6.2913544E1,1.0156407E1,1.4790756E0,1.2026479E0,4.951809E1,1.3395455E1,8.971924E0,1.1844835E0,3.747489E1,1.2043198E1,1.2473353E0,1.214812E1,2.6119696E1,1.1355197E1,9.097397E0,2.9458005E0,1.069665E1,1.45147E0,2.0494259E1,5.6254373E0,8.130175E0,3.2250218E0,7.1775484E0,1.9198487E0,1.2425E0,1.7033006E0],"tree_param":{"num_deleted":"0","num_feature":"11","num_nodes":"33","size_leaf_vector":"0"}},{"base_weights":[3.6192176E-1,-1.139591E0,1.4716382E0,8.87869E-2,-1.4879485E0,6.899731E-1,1.4748096E0,-1.2203655E-1,1.3083488E0,2.4904975E-1,8.740056E-1,1.3774045E-1,-1.0348196E0,1.3762045E0,4.0545347E-1,-8.162096E-2,1.2946235E0,2.3963848E-2,-1.2113053E0,1.7527054E-1,-1.2927743E0,-5.818011E-1,-1.3651156E0,4.6160254E-3,1.1194628E0,-1.4031161E0,-3.8390663E-1,-1.0377759E0,2.6123738E-1],"categories":[],"categories_nodes":[],"categories_segments":[],"categories_sizes":[],"default_left":[1,1,1,1,0,1,0,1,1,0,0,1,1,0,0,1,0,0,1,1,1,1,0,0,0,0,0,0,0],"id":4,"left_children":[1,3,5,7,-1,9,-1,11,13,-1,-1,15,17,-1,-1,19,-1,-1,21,23,25,27,-1,-1,-1,-1,-1,-1,-1],"loss_changes":[1.2727626E3,1.390993E2,7.092285E-2,1.8850086E1,0E0,7.878351E-2,0E0,1.5055972E1,1.036644E-1,0E0,0E0,1.2754498E1,2.654683E0,0E0,0E0,1.3555239E1,0E0,0E0,3.7379456E-1,5.8314857E0,2.2508335E-1,1.8515726E0,0E0,0E0,0E0,0E0,0E0,0E0,0E0],"parents":[2147483647,0,0,1,1,2,2,3,3,5,5,7,7,8,8,11,11,12,12,15,15,18,18,19,19,20,20,21,21],"right_children":[2,4,6,8,-1,10,-1,12,14,-1,-1,16,18,-1,-1,20,-1,-1,22,24,26,28,-1,-1,-1,-1,-1,-1,-1],"split_conditions":[5.495E2,5E0,-5E4,2.625E7,-1.4879486E-1,2.35E6,1.4748096E-1,7.05E6,1.675E7,2.4904976E-2,8.740056E-2,1.84E7,3.435E2,1.3762045E-1,4.0545348E-2,5.45E6,1.2946235E-1,2.396385E-3,7.45E6,1.455E7,1.705E7,1.79E7,-1.3651156E-1,4.6160255E-4,1.11946285E-1,-1.4031161E-1,-3.8390663E-2,-1.0377759E-1,2.6123738E-2],"split_indices":[4,3,5,2,0,6,0,1,6,0,0,2,4,0,0,1,0,0,1,2,2,2,0,0,0,0,0,0,0],"split_type":[0,0,0,0,0,0,0,0,0,0,0,0,0,0,0,0,0,0,0,0,0,0,0,0,0,0,0,0,0],"sum_hessian":[7.618404E2,3.237544E2,4.38086E2,7.169361E1,2.5206079E2,2.6534252E0,4.3543256E2,6.1894035E1,9.799576E0,1.474342E0,1.1790833E0,4.884259E1,1.3051446E1,8.627014E0,1.1725619E0,4.1838806E1,7.0037827E0,1.9881618E0,1.1063285E1,3.5223103E1,6.6157045E0,3.1114702E0,7.951814E0,3.0682413E1,4.540689E0,5.4145417E0,1.2011628E0,1.869382E0,1.2420883E0],"tree_param":{"num_deleted":"0","num_feature":"11","num_nodes":"29","size_leaf_vector":"0"}},{"base_weights":[3.439033E-1,-1.0783097E0,1.4025391E0,8.1877135E-2,-1.4196228E0,6.57668E-1,1.4056729E0,-1.1413843E-1,1.2423335E0,2.346999E-1,8.373582E-1,1.2663767E-1,-9.764166E-1,1.3081381E0,3.858398E-1,-7.564844E-2,1.2198825E0,-1.351719E0,-3.5712522E-1,1.9688775E-1,-1.070908E0,1.3033745E0,3.852177E-1,1.1565576E0,-1.0402563E0,-2.7861305E-2,1.093672E0,-1.3366146E0,-2.8546053E-1],"categories":[],"categories_nodes":[],"categories_segments":[],"categories_sizes":[],"default_left":[1,1,1,1,0,1,0,1,1,0,0,1,1,0,0,1,1,0,1,1,1,0,0,0,0,0,0,0,0],"id":5,"left_children":[1,3,5,7,-1,9,-1,11,13,-1,-1,15,17,-1,-1,19,21,-1,23,25,27,-1,-1,-1,-1,-1,-1,-1,-1],"loss_changes":[1.0929703E3,1.22836395E2,4.663086E-2,1.6381273E1,0E0,7.8768134E-2,0E0,1.2994151E1,8.146095E-2,0E0,0E0,1.1004928E1,2.6890001E0,0E0,0E0,1.1761006E1,3.8921356E-2,0E0,7.933147E0,6.9382463E0,1.5612497E0,0E0,0E0,0E0,0E0,0E0,0E0,0E0,0E0],"parents":[2147483647,0,0,1,1,2,2,3,3,5,5,7,7,8,8,11,11,12,12,15,15,16,16,18,18,19,19,20,20],"right_children":[2,4,6,8,-1,10,-1,12,14,-1,-1,16,18,-1,-1,20,22,-1,24,26,28,-1,-1,-1,-1,-1,-1,-1,-1],"split_conditions":[5.495E2,5E0,-5E4,2.625E7,-1.4196227E-1,2.35E6,1.4056729E-1,7.05E6,1.675E7,2.346999E-2,8.3735816E-2,1.84E7,2.185E7,1.3081382E-1,3.858398E-2,5.15E6,4.5E0,-1.351719E-1,8.1E6,1.265E7,1.605E7,1.3033746E-1,3.852177E-2,1.1565576E-1,-1.04025625E-1,-2.7861304E-3,1.0936721E-1,-1.3366146E-1,-2.8546054E-2],"split_indices":[4,3,5,2,0,6,0,1,6,0,0,2,2,0,0,1,0,0,1,2,2,0,0,0,0,0,0,0,0],"split_type":[0,0,0,0,0,0,0,0,0,0,0,0,0,0,0,0,0,0,0,0,0,0,0,0,0,0,0,0,0],"sum_hessian":[7.239295E2,3.089096E2,4.150199E2,7.03925E1,2.3851712E2,2.6221626E0,4.1239774E2,6.0991856E1,9.400642E0,1.4694346E0,1.1527278E0,4.8345387E1,1.2646469E1,8.240227E0,1.1604158E0,4.1582134E1,6.763254E0,7.138011E0,5.508458E0,3.3273014E1,8.309118E0,5.637751E0,1.1255028E0,1.4974288E0,4.0110292E0,2.7380053E1,5.892964E0,5.684427E0,2.624692E0],"tree_param":{"num_deleted":"0","num_feature":"11","num_nodes":"29","size_leaf_vector":"0"}},{"base_weights":[3.2890084E-1,-1.0254551E0,1.3450564E0,7.760541E-2,-1.3631748E0,4.741655E-1,1.347127E0,-1.05008036E-1,1.1852379E0,1.17807046E-1,-9.210885E-1,3.9500853E-1,1.2575895E0,-7.0156515E-2,1.1593596E0,-1.2859639E0,-3.2791162E-1,1.4983495E-1,-1.2157177E0,1.2399619E0,3.6695042E-1,1.0924145E0,-9.846711E-1,2.8020012E-1,-1.0070738E0],"categories":[],"categories_nodes":[],"categories_segments":[],"categories_sizes":[],"default_left":[1,1,1,1,0,0,0,1,1,1,1,0,0,1,1,0,1,1,0,0,0,0,0,0,0],"id":6,"left_children":[1,3,5,7,-1,-1,-1,9,11,13,15,-1,-1,17,19,-1,21,23,-1,-1,-1,-1,-1,-1,-1],"loss_changes":[9.442289E2,1.0971869E2,6.7871094E-2,1.4266438E1,0E0,0E0,0E0,1.1189509E1,7.366848E-2,9.626587E0,2.4316645E0,0E0,0E0,1.0828659E1,2.4707794E-2,0E0,7.011308E0,5.7615237E0,0E0,0E0,0E0,0E0,0E0,0E0,0E0],"parents":[2147483647,0,0,1,1,2,2,3,3,7,7,8,8,9,9,10,10,13,13,14,14,16,16,17,17],"right_children":[2,4,6,8,-1,-1,-1,10,12,14,16,-1,-1,18,20,-1,22,24,-1,-1,-1,-1,-1,-1,-1],"split_conditions":[5.495E2,5E0,4.5E5,2.625E7,-1.3631748E-1,4.741655E-2,1.347127E-1,7.05E6,4.15E6,1.84E7,2.185E7,3.9500855E-2,1.2575895E-1,7.25E6,4.5E0,-1.285964E-1,8.1E6,5.55E6,-1.2157177E-1,1.2399619E-1,3.6695044E-2,1.0924145E-1,-9.846711E-2,2.8020013E-2,-1.00707375E-1],"split_indices":[4,3,7,2,0,0,0,1,5,2,2,0,0,6,0,0,1,1,0,0,0,0,0,0,0],"split_type":[0,0,0,0,0,0,0,0,0,0,0,0,0,0,0,0,0,0,0,0,0,0,0,0,0],"sum_hessian":[6.8409283E2,2.932428E2,3.9085004E2,6.8916824E1,2.2432597E2,1.472628E0,3.893774E2,5.9939842E1,8.976982E0,4.7756493E1,1.2183349E1,1.2947875E0,7.6821947E0,4.124573E1,6.5107603E0,6.8201857E0,5.363163E0,3.5330193E1,5.915541E0,5.3969893E0,1.113771E0,1.4860501E0,3.877113E0,3.243328E1,2.8969114E0],"tree_param":{"num_deleted":"0","num_feature":"11","num_nodes":"25","size_leaf_vector":"0"}},{"base_weights":[3.1570697E-1,-9.796921E-1,1.2963129E0,7.159776E-2,-1.3159275E0,5.509424E-1,1.2999196E0,-9.921403E-2,1.1343967E0,1.5281697E-1,7.521463E-1,1.0667731E-1,-8.726088E-1,1.2044344E0,3.1635028E-1,-1.3120638E-1,8.512149E-1,-1.2292336E0,-3.018175E-1,2.3654899E-1,-8.914583E-1,1.2517277E0,2.2418427E-1,1.0356843E0,-9.342642E-1,-1.21321995E-2,1.2843963E0,3.2641372E-1,-1.0465735E0,-1.1556075E0,1.0785435E0,-2.7704877E-1,-1.0453011E0],"categories":[],"categories_nodes":[],"categories_segments":[],"categories_sizes":[],"default_left":[1,1,1,1,0,1,0,1,1,0,0,1,1,0,0,1,1,0,1,1,1,0,1,0,1,0,0,0,0,0,0,0,0],"id":7,"left_children":[1,3,5,7,-1,9,-1,11,13,-1,-1,15,17,-1,-1,19,21,-1,23,25,27,-1,29,-1,31,-1,-1,-1,-1,-1,-1,-1,-1],"loss_changes":[8.20141E2,9.8471405E1,2.7130127E-1,1.2528059E1,0E0,1.6578066E-1,0E0,9.621786E0,1.6614151E-1,0E0,0E0,8.639731E0,2.212183E0,0E0,0E0,1.065555E1,2.6809158E0,0E0,6.2166233E0,6.782442E0,2.6820478E0,0E0,8.10094E0,0E0,5.621624E-2,0E0,0E0,0E0,0E0,0E0,0E0,0E0,0E0],"parents":[2147483647,0,0,1,1,2,2,3,3,5,5,7,7,8,8,11,11,12,12,15,15,16,16,18,18,19,19,20,20,22,22,24,24],"right_children":[2,4,6,8,-1,10,-1,12,14,-1,-1,16,18,-1,-1,20,22,-1,24,26,28,-1,30,-1,32,-1,-1,-1,-1,-1,-1,-1,-1],"split_conditions":[5.495E2,5E0,-5E4,2.625E7,-1.3159275E-1,2.35E6,1.2999196E-1,7.05E6,1.675E7,1.5281697E-2,7.521463E-2,1.605E7,2.185E7,1.2044344E-1,3.1635027E-2,3.75E6,6.15E6,-1.2292337E-1,8.1E6,1.03E7,1.35E6,1.2517278E-1,2.035E7,1.03568435E-1,8.35E6,-1.21322E-3,1.2843964E-1,3.2641374E-2,-1.0465735E-1,-1.1556075E-1,1.0785436E-1,-2.7704878E-2,-1.0453011E-1],"split_indices":[4,3,5,2,0,6,0,1,6,0,0,2,2,0,0,1,1,0,1,2,6,0,2,0,5,0,0,0,0,0,0,0,0],"split_type":[0,0,0,0,0,0,0,0,0,0,0,0,0,0,0,0,0,0,0,0,0,0,0,0,0,0,0,0,0,0,0,0,0],"sum_hessian":[6.4364026E2,2.7730975E2,3.6633047E2,6.739048E1,2.0991927E2,2.5044456E0,3.6382605E2,5.884037E1,8.550107E0,1.431475E0,1.0729704E0,4.7150215E1,1.1690154E1,7.440732E0,1.1093751E0,3.635756E1,1.0792658E1,6.4848943E0,5.20526E0,2.4968462E1,1.1389098E1,5.977976E0,4.814682E0,1.4664401E0,3.7388196E0,2.0978212E1,3.9902492E0,1.1619368E0,1.0227161E1,1.7063394E0,3.1083424E0,1.0455322E0,2.6932874E0],"tree_param":{"num_deleted":"0","num_feature":"11","num_nodes":"33","size_leaf_vector":"0"}},{"base_weights":[3.046996E-1,-9.393042E-1,1.2548112E0,6.906084E-2,-1.2759459E0,1.0140036E0,1.2751181E0,-9.118608E-2,1.0892963E0,2.7449998E-1,1.0559748E0,1.01836964E-1,-8.318214E-1,1.1595458E0,3.014921E-1,-2.4731863E-1,6.5445584E-1,1.0827326E0,1.6350831E-1,-6.171452E-2,1.0596724E0,2.473974E-1,-9.7270244E-1,1.23595685E-1,-1.1283809E0,1.1377449E0,3.2203597E-1,-3.5545337E-1,-1.1771325E0,-1.3380181E-2,1.0385481E0,-9.172246E-1,5.709188E-1],"categories":[],"categories_nodes":[],"categories_segments":[],"categories_sizes":[],"default_left":[1,1,1,1,0,1,0,1,1,1,1,1,1,0,0,0,0,0,0,1,1,0,1,1,0,0,0,1,0,0,0,0,0],"id":8,"left_children":[1,3,5,7,-1,9,-1,11,13,15,17,19,21,-1,-1,-1,-1,-1,-1,23,25,-1,27,29,-1,-1,-1,31,-1,-1,-1,-1,-1],"loss_changes":[7.152492E2,8.908896E1,3.8415527E-1,1.0982995E1,0E0,6.8955994E-1,0E0,8.441697E0,1.5480423E-1,7.6579344E-1,5.27668E-1,7.4693356E0,2.0946941E0,0E0,0E0,0E0,0E0,0E0,0E0,8.305842E0,3.3744335E-2,0E0,9.68235E-1,4.538252E0,0E0,0E0,0E0,2.6920133E0,0E0,0E0,0E0,0E0,0E0],"parents":[2147483647,0,0,1,1,2,2,3,3,5,5,7,7,8,8,9,9,10,10,11,11,12,12,19,19,20,20,22,22,23,23,27,27],"right_children":[2,4,6,8,-1,10,-1,12,14,16,18,20,22,-1,-1,-1,-1,-1,-1,24,26,-1,28,30,-1,-1,-1,32,-1,-1,-1,-1,-1],"split_conditions":[5.495E2,5E0,5.5E5,2.625E7,-1.2759459E-1,5E4,1.2751181E-1,7.05E6,1.675E7,9.5E5,2.755E7,1.84E7,3.355E2,1.1595458E-1,3.014921E-2,-2.4731863E-2,6.544559E-2,1.0827326E-1,1.6350832E-2,5.55E6,4.5E0,2.473974E-2,7.6E6,1.5E7,-1.1283809E-1,1.1377449E-1,3.2203596E-2,1.995E7,-1.1771325E-1,-1.3380181E-3,1.0385481E-1,-9.172246E-2,5.709188E-2],"split_indices":[4,3,5,2,0,6,0,1,6,7,2,2,4,0,0,0,0,0,0,1,0,0,1,2,0,0,0,2,0,0,0,0,0],"split_type":[0,0,0,0,0,0,0,0,0,0,0,0,0,0,0,0,0,0,0,0,0,0,0,0,0,0,0,0,0,0,0,0,0],"sum_hessian":[6.0315E2,2.6118527E2,3.4196475E2,6.557101E1,1.9561426E2,3.0555824E1,3.114089E2,5.7456947E1,8.114058E0,2.04605E0,2.8509775E1,4.626258E1,1.119437E1,7.016516E0,1.0975417E0,1.0091724E0,1.0368776E0,2.7472897E1,1.0368776E0,4.0314415E1,5.9481635E0,1.2052768E0,9.989093E0,3.510058E1,5.2138367E0,4.888353E0,1.0598108E0,3.1666303E0,6.822463E0,3.1387056E1,3.713523E0,1.9773805E0,1.1892498E0],"tree_param":{"num_deleted":"0","num_feature":"11","num_nodes":"33","size_leaf_vector":"0"}},{"base_weights":[2.9492053E-1,-9.0193516E-1,1.218909E0,6.60815E-2,-1.2417952E0,9.711499E-1,1.24024E0,-8.3782636E-2,1.0486193E0,2.633325E-1,1.0128978E0,5.6903046E-1,-2.828953E-1,2.8036618E-1,1.1305009E0,1.0398628E0,1.5594411E-1,1.2895896E0,9.841126E-3,-1.4726602E0,-1.2130507E-1,1.5376457E0,1.926251E-1,-5.44834E-1,8.9463234E-1,8.0259556E-1,-3.1472057E-1,4.2477053E-1,-1.2398174E0,1.1684527E0,1.926251E-1,1.1280303E0,-4.0301114E-1,-1.3649299E0,-1.8301633E-1],"categories":[],"categories_nodes":[],"categories_segments":[],"categories_sizes":[],"default_left":[1,1,1,1,0,1,0,1,1,0,1,1,1,0,0,0,0,1,1,0,1,0,0,1,1,1,1,0,0,0,0,0,0,0,0],"id":9,"left_children":[1,3,5,7,-1,9,-1,11,13,-1,15,17,19,-1,-1,-1,-1,21,23,-1,25,-1,-1,27,29,31,33,-1,-1,-1,-1,-1,-1,-1,-1],"loss_changes":[6.2583673E2,8.124223E1,4.8266602E-1,9.66697E0,0E0,6.172428E-1,0E0,7.61828E0,2.2928429E-1,0E0,4.8247337E-1,5.5239186E0,8.4017315E0,0E0,0E0,0E0,0E0,1.3354931E0,4.7789655E0,0E0,7.468965E0,0E0,0E0,4.567389E0,4.9538922E-1,3.3078785E0,4.4683313E0,0E0,0E0,0E0,0E0,0E0,0E0,0E0,0E0],"parents":[2147483647,0,0,1,1,2,2,3,3,5,5,7,7,8,8,10,10,11,11,12,12,17,17,18,18,20,20,23,23,24,24,25,25,26,26],"right_children":[2,4,6,8,-1,10,-1,12,14,-1,16,18,20,-1,-1,-1,-1,22,24,-1,26,-1,-1,28,30,32,34,-1,-1,-1,-1,-1,-1,-1,-1],"split_conditions":[5.495E2,5E0,5.5E5,2.625E7,-1.2417952E-1,5E4,1.24024E-1,5.7E6,4.15E6,2.6333248E-2,2.755E7,1.5E0,7.15E6,2.8036619E-2,1.13050096E-1,1.0398628E-1,1.5594411E-2,1.4E6,3.45E6,-1.4726602E-1,1.005E7,1.5376458E-1,1.9262511E-2,1.15E6,1.65E6,5.4E6,1.03E7,4.2477053E-2,-1.2398174E-1,1.1684527E-1,1.9262511E-2,1.12803034E-1,-4.0301114E-2,-1.36493E-1,-1.8301634E-2],"split_indices":[4,3,5,2,0,6,0,7,5,0,2,0,2,0,0,0,0,1,2,0,7,0,0,7,1,6,2,0,0,0,0,0,0,0,0],"split_type":[0,0,0,0,0,0,0,0,0,0,0,0,0,0,0,0,0,0,0,0,0,0,0,0,0,0,0,0,0,0,0,0,0,0,0],"sum_hessian":[5.639228E2,2.4569473E2,3.182281E2,6.4054665E1,1.8164008E2,2.8914452E1,2.8931363E2,5.6371223E1,7.6834397E0,2.017435E0,2.6897017E1,1.2740907E1,4.3630318E1,1.1661456E0,6.5172944E0,2.5869564E1,1.0274523E0,4.9964337E0,7.7444725E0,4.2469687E0,3.9383347E1,3.7473254E0,1.2491084E0,4.9964337E0,2.7480385E0,6.2723255E0,3.3111023E1,2.2483952E0,2.7480385E0,1.4989302E0,1.2491084E0,4.9897633E0,1.2825624E0,2.6462483E0,3.0464773E1],"tree_param":{"num_deleted":"0","num_feature":"11","num_nodes":"35","size_leaf_vector":"0"}},{"base_weights":[2.8573218E-1,-8.645759E-1,1.1874802E0,6.269231E-2,-1.2123871E0,9.3058157E-1,1.2101326E0,-7.5686224E-2,1.0105534E0,2.478841E-1,9.728012E-1,1.02536E-1,-7.813033E-1,1.094745E0,2.495067E-1,1.0000638E0,1.4873606E-1,-9.160978E-2,8.47765E-1,-1.1431392E0,-2.2582415E-1,2.5654054E-1,-7.467673E-1,1.0703466E0,9.6487865E-2,9.7189975E-1,-8.3617496E-1,-8.369646E-1,3.5989013E-1,-1.04145996E-1,-9.377603E-1,1.1476389E0,2.9819748E-1,-6.030536E-1,7.424996E-1],"categories":[],"categories_nodes":[],"categories_segments":[],"categories_sizes":[],"default_left":[1,1,1,1,0,1,0,1,1,0,1,1,1,0,0,0,0,1,1,0,1,1,1,1,1,0,0,0,0,0,0,0,0,0,0],"id":10,"left_children":[1,3,5,7,-1,9,-1,11,13,-1,15,17,19,-1,-1,-1,-1,21,23,-1,25,27,29,31,33,-1,-1,-1,-1,-1,-1,-1,-1,-1,-1],"loss_changes":[5.48571E2,7.507353E1,5.982666E-1,8.521092E0,0E0,5.757103E-1,0E0,7.2621694E0,2.568388E-1,0E0,4.431839E-1,6.8023334E0,2.0798225E0,0E0,0E0,0E0,0E0,8.807824E0,1.519351E0,0E0,5.077876E0,3.1730375E0,1.5425515E0,9.861946E-2,1.946704E0,0E0,0E0,0E0,0E0,0E0,0E0,0E0,0E0,0E0,0E0],"parents":[2147483647,0,0,1,1,2,2,3,3,5,5,7,7,8,8,10,10,11,11,12,12,17,17,18,18,20,20,21,21,22,22,23,23,24,24],"right_children":[2,4,6,8,-1,10,-1,12,14,-1,16,18,20,-1,-1,-1,-1,22,24,-1,26,28,30,32,34,-1,-1,-1,-1,-1,-1,-1,-1,-1,-1],"split_conditions":[5.495E2,5E0,5.5E5,2.625E7,-1.2123871E-1,5E4,1.2101326E-1,7.05E6,9.65E6,2.478841E-2,2.755E7,1.665E7,2.185E7,1.094745E-1,2.495067E-2,1.0000638E-1,1.4873606E-2,3.75E6,2.165E7,-1.1431392E-1,8.1E6,9.5E5,3.25E6,1.525E7,2.165E7,9.718998E-2,-8.36175E-2,-8.369646E-2,3.5989013E-2,-1.0414599E-2,-9.377603E-2,1.1476389E-1,2.9819747E-2,-6.0305364E-2,7.424996E-2],"split_indices":[4,3,5,2,0,6,0,1,1,0,2,2,2,0,0,0,0,6,7,0,1,2,8,5,2,0,0,0,0,0,0,0,0,0,0],"split_type":[0,0,0,0,0,0,0,0,0,0,0,0,0,0,0,0,0,0,0,0,0,0,0,0,0,0,0,0,0,0,0,0,0,0,0],"sum_hessian":[5.268614E2,2.3154016E2,2.9532123E2,6.338224E1,1.6815793E2,2.7340076E1,2.6798117E2,5.6110764E1,7.2714777E0,1.9924916E0,2.5347586E1,4.5478622E1,1.0632141E1,6.1523895E0,1.1190884E0,2.4329128E1,1.0184565E0,3.6775105E1,8.703516E0,5.7976503E0,4.834491E0,2.4411356E1,1.236375E1,6.386638E0,2.3168776E0,1.432013E0,3.4024777E0,1.4949925E0,2.2916363E1,3.1867607E0,9.1769905E0,5.3634624E0,1.0231755E0,1.144279E0,1.1725987E0],"tree_param":{"num_deleted":"0","num_feature":"11","num_nodes":"35","size_leaf_vector":"0"}},{"base_weights":[2.7763045E-1,-8.336598E-1,1.1597244E0,5.8562838E-2,-1.1868802E0,8.922758E-1,1.1839359E0,-7.153083E-2,9.753405E-1,2.3331904E-1,9.350588E-1,9.394354E-2,-7.4610096E-1,2.2454351E-1,1.0638046E0,9.6268284E-1,1.418662E-1,-1.03565164E-1,7.5912046E-1,-9.356799E-1,1.11029424E-1,3.694035E-1,9.8900414E-1,5.115858E-1,-4.5639113E-1,1.1332325E0,1.8000723E-1,-1.1029966E0,-3.989942E-1,1.1753615E0,4.6237078E-4,-1.3743495E0,-1.8309742E-1,-1.0149827E0,9.7052306E-1,2.0676598E-1,-7.7370846E-1],"categories":[],"categories_nodes":[],"categories_segments":[],"categories_sizes":[],"default_left":[1,1,1,1,0,1,0,1,1,0,1,1,1,0,0,1,0,1,1,1,0,0,0,1,1,0,1,0,1,0,0,0,0,0,0,0,0],"id":11,"left_children":[1,3,5,7,-1,9,-1,11,13,-1,15,17,19,-1,-1,21,-1,23,25,27,-1,-1,-1,29,31,-1,33,-1,35,-1,-1,-1,-1,-1,-1,-1,-1],"loss_changes":[4.82774E2,6.879755E1,7.206421E-1,7.5600376E0,0E0,5.385227E-1,0E0,6.3132052E0,2.8402567E-1,0E0,4.0839386E-1,6.0958424E0,1.9122906E0,0E0,0E0,7.2784424E-3,0E0,8.089248E0,2.0938268E0,3.8778305E-1,0E0,0E0,0E0,4.6354074E0,5.651476E0,0E0,6.0402727E0,0E0,1.0129683E0,0E0,0E0,0E0,0E0,0E0,0E0,0E0,0E0],"parents":[2147483647,0,0,1,1,2,2,3,3,5,5,7,7,8,8,10,10,11,11,12,12,15,15,17,17,18,18,19,19,23,23,24,24,26,26,28,28],"right_children":[2,4,6,8,-1,10,-1,12,14,-1,16,18,20,-1,-1,22,-1,24,26,28,-1,-1,-1,30,32,-1,34,-1,36,-1,-1,-1,-1,-1,-1,-1,-1],"split_conditions":[5.495E2,5E0,5.5E5,2.625E7,-1.18688025E-1,5E4,1.1839359E-1,7.05E6,4.15E6,2.3331905E-2,2.755E7,1.605E7,2.51E7,2.2454351E-2,1.0638046E-1,5.85E2,1.4186621E-2,5.7E6,6.15E6,2.185E7,1.1102943E-2,3.694035E-2,9.8900415E-2,1.5E0,7.15E6,1.1332325E-1,2.035E7,-1.1029966E-1,8.4E6,1.1753615E-1,4.6237077E-5,-1.3743494E-1,-1.8309742E-2,-1.0149827E-1,9.7052306E-2,2.0676598E-2,-7.7370845E-2],"split_indices":[4,3,5,2,0,6,0,1,5,0,2,2,2,0,0,4,0,7,1,2,0,0,0,0,2,0,2,0,1,0,0,0,0,0,0,0,0],"split_type":[0,0,0,0,0,0,0,0,0,0,0,0,0,0,0,0,0,0,0,0,0,0,0,0,0,0,0,0,0,0,0,0,0,0,0,0,0],"sum_hessian":[4.9050836E2,2.1707951E2,2.7342886E2,6.180256E1,1.5527696E2,2.584041E1,2.4758844E2,5.492982E1,6.8727403E0,1.9688671E0,2.3871542E1,4.4800774E1,1.0129046E1,1.0973921E0,5.775348E0,2.2861671E1,1.0098718E0,3.5194805E1,9.605968E0,8.2194395E0,1.9096072E0,1.6098634E0,2.1251808E1,1.2664436E1,2.2530369E1,5.254607E0,4.3513613E0,5.4615517E0,2.757888E0,4.9441276E0,7.7203083E0,4.24457E0,1.8285799E1,1.6194127E0,2.7319489E0,1.2252928E0,1.5325953E0],"tree_param":{"num_deleted":"0","num_feature":"11","num_nodes":"37","size_leaf_vector":"0"}},{"base_weights":[2.7022624E-1,-8.0403286E-1,1.1350058E0,5.496769E-2,-1.1646134E0,8.564586E-1,1.160974E0,-6.707693E-2,9.423831E-1,2.195869E-1,8.9986604E-1,8.777951E-2,-7.122289E-1,1.0338657E0,1.9711746E-1,9.278904E-1,1.3531835E-1,-4.8739973E-2,9.566438E-1,2.8026158E-1,-8.6221945E-1,3.5200346E-1,9.543275E-1,1.501251E-1,-8.642098E-1,-2.5559488E-1,-1.0760833E0,1.054086E0,6.098172E-1,-3.9949946E-2,9.62111E-1,-1.1136695E0,-1.8678539E-1,-7.9571927E-1,5.3577816E-1,-8.72932E-1,1.0006833E0],"categories":[],"categories_nodes":[],"categories_segments":[],"categories_sizes":[],"default_left":[1,1,1,1,0,1,0,1,1,0,1,1,1,0,0,1,0,1,0,0,1,0,1,1,1,1,0,0,1,0,0,0,0,0,0,0,0],"id":12,"left_children":[1,3,5,7,-1,9,-1,11,13,-1,15,17,19,-1,-1,21,-1,23,-1,-1,25,-1,27,29,31,33,-1,-1,35,-1,-1,-1,-1,-1,-1,-1,-1],"loss_changes":[4.2562445E2,6.339839E1,8.407593E-1,6.714219E0,0E0,5.0588226E-1,0E0,5.5492897E0,3.069353E-1,0E0,3.779602E-1,5.405617E0,1.8405056E0,0E0,0E0,6.6127777E-3,0E0,6.6157837E0,0E0,0E0,9.672556E-1,0E0,7.64122E-2,5.132581E0,1.1421037E0,2.0537844E0,0E0,0E0,4.9719524E0,0E0,0E0,0E0,0E0,0E0,0E0,0E0,0E0],"parents":[2147483647,0,0,1,1,2,2,3,3,5,5,7,7,8,8,10,10,11,11,12,12,15,15,17,17,20,20,22,22,23,23,24,24,25,25,28,28],"right_children":[2,4,6,8,-1,10,-1,12,14,-1,16,18,20,-1,-1,22,-1,24,-1,-1,26,-1,28,30,32,34,-1,-1,36,-1,-1,-1,-1,-1,-1,-1,-1],"split_conditions":[5.495E2,5E0,5.5E5,2.625E7,-1.1646134E-1,5E4,1.16097406E-1,7.05E6,9.65E6,2.195869E-2,2.755E7,1.84E7,3.355E2,1.0338657E-1,1.9711746E-2,5.85E2,1.3531836E-2,5.15E6,9.566438E-2,2.8026158E-2,7.6E6,3.5200346E-2,9.75E6,1.265E7,1.605E7,1.995E7,-1.0760833E-1,1.054086E-1,1.025E7,-3.994995E-3,9.62111E-2,-1.1136695E-1,-1.8678539E-2,-7.9571925E-2,5.3577818E-2,-8.72932E-2,1.0006833E-1],"split_indices":[4,3,5,2,0,6,0,1,1,0,2,2,4,0,0,4,0,1,0,0,1,0,2,2,2,2,0,0,7,0,0,0,0,0,0,0,0],"split_type":[0,0,0,0,0,0,0,0,0,0,0,0,0,0,0,0,0,0,0,0,0,0,0,0,0,0,0,0,0,0,0,0,0,0,0,0,0],"sum_hessian":[4.5617233E2,2.0347673E2,2.526956E2,6.041038E1,1.4306636E2,2.4446968E1,2.2824863E2,5.391936E1,6.491019E0,1.9465163E0,2.2500452E1,4.4178978E1,9.740383E0,5.4364424E0,1.0545764E0,2.1498772E1,1.0016816E0,3.899572E1,5.183262E0,1.1647412E0,8.575642E0,1.5719209E0,1.992685E1,3.2006367E1,6.9893503E0,2.807448E0,5.768194E0,1.3855194E1,6.071656E0,2.6705717E1,5.3006516E0,4.6375923E0,2.3517578E0,1.6653373E0,1.1421107E0,1.0093528E0,5.0623035E0],"tree_param":{"num_deleted":"0","num_feature":"11","num_nodes":"37","size_leaf_vector":"0"}},{"base_weights":[2.6351598E-1,-7.7632874E-1,1.1128315E0,5.194343E-2,-1.1450586E0,8.8262963E-1,1.1498363E0,-6.2811576E-2,9.1135615E-1,2.3257495E-1,9.354411E-1,4.7548342E-1,-2.3875304E-1,1.0118049E0,1.7953873E-1,6.548371E-1,-1.6830799E-1,9.570337E-1,1.2042472E-1,-7.9660076E-1,6.98319E-1,-1.2704217E0,-8.734505E-2,6.2992334E-1,1.04602E0,1.0361143E0,-1.7322972E-1,7.339203E-1,-2.713795E-1,1.0247781E0,-7.223823E-1,3.6117816E-1,1.0730222E0,1.2484028E0,1.940689E-1,-6.6928476E-1,5.681697E-1,1.0364475E0,-3.9892793E-1,-1.2600878E0,-1.3764246E-1,1.1119157E0,4.6445826E-1],"categories":[],"categories_nodes":[],"categories_segments":[],"categories_sizes":[],"default_left":[1,1,1,1,0,1,0,1,1,1,1,1,1,0,0,0,0,1,0,0,1,0,1,1,1,1,1,1,1,0,0,0,1,0,0,0,0,0,0,0,0,0,0],"id":13,"left_children":[1,3,5,7,-1,9,-1,11,13,15,17,19,21,-1,-1,-1,-1,23,-1,-1,25,-1,27,29,31,33,35,37,39,-1,-1,-1,41,-1,-1,-1,-1,-1,-1,-1,-1,-1,-1],"loss_changes":[3.7593005E2,5.8550575E1,9.798889E-1,5.9698744E0,0E0,1.0434933E0,0E0,5.211273E0,3.4223175E-1,8.027132E-1,4.767933E-1,4.4095554E0,6.329638E0,0E0,0E0,0E0,0E0,2.9088402E-1,0E0,0E0,3.7418008E0,0E0,5.7958193E0,5.808714E0,5.880928E-2,1.3421316E0,1.9383664E0,2.8291764E0,3.9230282E0,0E0,0E0,0E0,2.1198273E-2,0E0,0E0,0E0,0E0,0E0,0E0,0E0,0E0,0E0,0E0],"parents":[2147483647,0,0,1,1,2,2,3,3,5,5,7,7,8,8,9,9,10,10,11,11,12,12,17,17,20,20,22,22,23,23,24,24,25,25,26,26,27,27,28,28,32,32],"right_children":[2,4,6,8,-1,10,-1,12,14,16,18,20,22,-1,-1,-1,-1,24,-1,-1,26,-1,28,30,32,34,36,38,40,-1,-1,-1,42,-1,-1,-1,-1,-1,-1,-1,-1,-1,-1],"split_conditions":[5.495E2,5E0,9.5E5,2.625E7,-1.14505865E-1,5E4,1.1498363E-1,5.7E6,4.5E0,7.46E2,2.92E7,9.5E5,7.15E6,1.01180494E-1,1.7953873E-2,6.548371E-2,-1.68308E-2,4.5E5,1.2042472E-2,-7.966008E-2,4.5E0,-1.2704217E-1,1.005E7,3E6,-5E4,4.93E2,3.45E6,5.4E6,1.03E7,1.0247781E-1,-7.223823E-2,3.611782E-2,1.9E1,1.2484028E-1,1.940689E-2,-6.6928476E-2,5.6816973E-2,1.0364475E-1,-3.9892793E-2,-1.260088E-1,-1.3764246E-2,1.1119157E-1,4.6445828E-2],"split_indices":[4,3,5,2,0,6,0,7,0,4,2,2,2,0,0,0,0,6,0,0,0,0,7,2,5,4,2,6,2,0,0,0,3,0,0,0,0,0,0,0,0,0,0],"split_type":[0,0,0,0,0,0,0,0,0,0,0,0,0,0,0,0,0,0,0,0,0,0,0,0,0,0,0,0,0,0,0,0,0,0,0,0,0,0,0,0,0,0,0],"sum_hessian":[4.2368826E2,1.9051746E2,2.3317079E2,5.8952503E1,1.3156496E2,3.5732903E1,1.974379E2,5.282574E1,6.1267614E0,3.090905E0,3.2642E1,1.2593442E1,4.0232296E1,5.0508876E0,1.0758739E0,1.1967962E0,1.8941088E0,3.1629765E1,1.0122333E0,1.4933928E0,1.110005E1,4.2030053E0,3.6029293E1,8.492079E0,2.3137686E1,7.8634934E0,3.2365558E0,6.0486884E0,2.9980604E1,6.760349E0,1.73173E0,1.4229939E0,2.1714691E1,5.8947754E0,1.9687185E0,1.9974031E0,1.2391528E0,4.840996E0,1.2076927E0,2.5686471E0,2.7411957E1,1.9632837E1,2.0818553E0],"tree_param":{"num_deleted":"0","num_feature":"11","num_nodes":"43","size_leaf_vector":"0"}},{"base_weights":[2.5683594E-1,-7.4763197E-1,1.0928197E0,4.720617E-2,-1.1277891E0,8.527984E-1,1.1325043E0,-1.1790229E-1,6.0725075E-1,5.218502E-1,9.876219E-1,1.3993016E-1,-1.0279152E0,1.1143839E0,9.820243E-2,8.687813E-1,-6.239877E-1,1.0214524E0,1.14829615E-1,-5.213367E-2,9.697171E-1,-1.1766943E0,-1.674274E-1,-7.4701846E-1,9.3338233E-1,2.0332843E-1,1.0112056E0,-1.3402097E0,2.649716E-1,3.4398764E-1,1.0499399E0,1.7412955E-1,-1.0319753E0,1.1072553E0,8.972289E-2,-1.8100557E-1,-9.0297204E-1,1.0906372E0,4.4342932E-1,-4.4136256E-2,1.0267237E0,-3.3130836E-1,-1.1307415E0],"categories":[],"categories_nodes":[],"categories_segments":[],"categories_sizes":[],"default_left":[1,1,1,1,0,1,0,1,1,1,1,1,1,0,1,1,1,1,0,1,1,0,0,1,0,0,0,0,0,0,1,1,1,0,0,0,0,0,0,0,0,0,0],"id":14,"left_children":[1,3,5,7,-1,9,-1,11,13,15,17,19,21,-1,23,25,27,29,-1,31,33,-1,-1,35,-1,-1,-1,-1,-1,-1,37,39,41,-1,-1,-1,-1,-1,-1,-1,-1,-1,-1],"loss_changes":[3.3244138E2,5.4436195E1,1.091095E0,5.5447826E0,0E0,1.0323315E0,0E0,1.1066036E1,3.4116545E0,5.3764353E0,5.7736206E-1,5.971783E0,1.1340494E0,0E0,6.276425E0,7.187214E-1,2.5251596E0,7.3480606E-2,0E0,7.078894E0,7.520318E-1,0E0,0E0,2.3233128E-1,0E0,0E0,0E0,0E0,0E0,0E0,3.7826538E-2,4.9091945E0,3.9363384E-2,0E0,0E0,0E0,0E0,0E0,0E0,0E0,0E0,0E0,0E0],"parents":[2147483647,0,0,1,1,2,2,3,3,5,5,7,7,8,8,9,9,10,10,11,11,12,12,14,14,15,15,16,16,17,17,19,19,20,20,23,23,30,30,31,31,32,32],"right_children":[2,4,6,8,-1,10,-1,12,14,16,18,20,22,-1,24,26,28,30,-1,32,34,-1,-1,36,-1,-1,-1,-1,-1,-1,38,40,42,-1,-1,-1,-1,-1,-1,-1,-1,-1,-1],"split_conditions":[5.495E2,5E0,9.5E5,2.185E7,-1.1277892E-1,4.5E5,1.13250434E-1,5.8E6,8.15E6,3E6,2.92E7,1.455E7,2.045E7,1.1143839E-1,2.755E7,1.5E5,2.5E0,-5E4,1.14829615E-2,3.85E6,8.85E6,-1.17669426E-1,-1.6742742E-2,8.55E6,9.3338236E-2,2.0332843E-2,1.01120554E-1,-1.3402097E-1,2.6497161E-2,3.4398764E-2,1.9E1,1.03E7,3.535E2,1.1072554E-1,8.972289E-3,-1.8100558E-2,-9.029721E-2,1.0906372E-1,4.434293E-2,-4.4136257E-3,1.02672376E-1,-3.3130836E-2,-1.13074146E-1],"split_indices":[4,3,5,2,0,6,0,1,1,2,2,2,2,0,2,5,0,5,0,1,6,0,0,1,0,0,0,0,0,0,3,2,4,0,0,0,0,0,0,0,0,0,0],"split_type":[0,0,0,0,0,0,0,0,0,0,0,0,0,0,0,0,0,0,0,0,0,0,0,0,0,0,0,0,0,0,0,0,0,0,0,0,0,0,0,0,0,0,0],"sum_hessian":[3.93923E2,1.7897867E2,2.1494434E2,5.8189995E1,1.2078867E2,3.368707E1,1.8125726E2,4.5550568E1,1.2639426E1,1.116101E1,2.2526058E1,3.6153492E1,9.397076E0,5.7359276E0,6.903499E0,8.752704E0,2.408306E0,2.1521528E1,1.0045302E0,3.0119223E1,6.034272E0,7.698522E0,1.6985537E0,3.4835887E0,3.4199104E0,1.9710302E0,6.781674E0,1.0526135E0,1.3556925E0,1.396082E0,2.0125446E1,2.5136934E1,4.982287E0,4.9952836E0,1.0389885E0,1.2192221E0,2.2643666E0,1.8111908E1,2.0135386E0,2.0768414E1,4.3685217E0,1.153513E0,3.828774E0],"tree_param":{"num_deleted":"0","num_feature":"11","num_nodes":"43","size_leaf_vector":"0"}},{"base_weights":[2.5113675E-1,-7.23727E-1,1.0744193E0,4.4442855E-2,-1.1124552E0,8.2327104E-1,1.1171722E0,-1.1035537E-1,5.833656E-1,4.9095201E-1,9.629531E-1,1.3011348E-1,-9.8642373E-1,1.0783567E0,9.068289E-2,8.407559E-1,-5.784673E-1,9.967644E-1,1.8399471E-1,-3.504981E-2,9.9373066E-1,-1.138217E0,-1.5714647E-1,-7.124683E-1,9.0607965E-1,1.9132337E-1,9.8804915E-1,2.6176324E-1,-1.2342199E0,3.2764888E-1,1.026993E0,1.8462043E-1,-7.567406E-1,-1.7166832E-1,-8.647083E-1,1.0699507E0,4.2327163E-1,-2.2091875E-2,1.1211566E0,-1.0133234E0,-2.0430839E-2],"categories":[],"categories_nodes":[],"categories_segments":[],"categories_sizes":[],"default_left":[1,1,1,1,0,1,0,1,1,1,1,1,1,0,1,1,1,1,0,1,0,0,0,1,0,0,0,0,0,0,1,1,1,0,0,0,0,0,0,0,0],"id":15,"left_children":[1,3,5,7,-1,9,-1,11,13,15,17,19,21,-1,23,25,27,29,-1,31,-1,-1,-1,33,-1,-1,-1,-1,-1,-1,35,37,39,-1,-1,-1,-1,-1,-1,-1,-1],"loss_changes":[2.946148E2,5.0282143E1,1.215805E0,4.860086E0,0E0,1.0466747E0,0E0,9.713533E0,3.0692906E0,4.8732867E0,3.9618874E-1,5.253021E0,1.0693092E0,0E0,5.6228704E0,6.9523764E-1,2.242059E0,8.551407E-2,0E0,5.1614656E0,0E0,0E0,0E0,2.1288443E-1,0E0,0E0,0E0,0E0,0E0,0E0,5.2684784E-2,4.8817058E0,1.4128337E0,0E0,0E0,0E0,0E0,0E0,0E0,0E0,0E0],"parents":[2147483647,0,0,1,1,2,2,3,3,5,5,7,7,8,8,9,9,10,10,11,11,12,12,14,14,15,15,16,16,17,17,19,19,23,23,30,30,31,31,32,32],"right_children":[2,4,6,8,-1,10,-1,12,14,16,18,20,22,-1,24,26,28,30,-1,32,-1,-1,-1,34,-1,-1,-1,-1,-1,-1,36,38,40,-1,-1,-1,-1,-1,-1,-1,-1],"split_conditions":[5.495E2,5E0,9.5E5,2.185E7,-1.1124553E-1,4.5E5,1.11717224E-1,5.8E6,8.15E6,3E6,2.85E7,1.5E7,2.045E7,1.0783567E-1,2.755E7,1.5E5,7.35E2,-5E4,1.8399471E-2,3.75E6,9.9373065E-2,-1.138217E-1,-1.5714647E-2,8.55E6,9.060796E-2,1.9132337E-2,9.880491E-2,2.6176324E-2,-1.2342199E-1,3.276489E-2,1.9E1,1.03E7,1.405E7,-1.7166832E-2,-8.6470835E-2,1.0699507E-1,4.2327162E-2,-2.2091875E-3,1.1211566E-1,-1.01332344E-1,-2.043084E-3],"split_indices":[4,3,5,2,0,6,0,1,1,2,2,2,2,0,2,5,4,5,0,1,0,0,0,1,0,0,0,0,0,0,3,2,2,0,0,0,0,0,0,0,0],"split_type":[0,0,0,0,0,0,0,0,0,0,0,0,0,0,0,0,0,0,0,0,0,0,0,0,0,0,0,0,0,0,0,0,0,0,0,0,0,0,0,0,0],"sum_hessian":[3.6511203E2,1.6722217E2,1.9788986E2,5.6485756E1,1.1073641E2,3.1733107E1,1.6615677E2,4.4499195E1,1.1986559E1,1.072705E1,2.1006056E1,3.5583492E1,8.915704E0,5.386288E0,6.6002707E0,8.244213E0,2.4828372E0,1.9864222E1,1.141835E0,3.0676207E1,4.907285E0,7.221348E0,1.6943563E0,3.3886964E0,3.2115743E0,1.9491448E0,6.2950683E0,1.3516972E0,1.1311399E0,1.3703471E0,1.8493874E1,2.4088322E1,6.587886E0,1.2117677E0,2.1769288E0,1.65444E1,1.9494754E0,2.0532743E1,3.555577E0,4.6064515E0,1.9814345E0],"tree_param":{"num_deleted":"0","num_feature":"11","num_nodes":"41","size_leaf_vector":"0"}},{"base_weights":[2.4590684E-1,-7.00578E-1,1.0574582E0,4.2616613E-2,-1.0987676E0,7.9498243E-1,1.1035451E0,-4.3555558E-2,9.308604E-1,4.620939E-1,9.3937296E-1,4.4220495E-1,-2.0886342E-1,8.1371003E-1,-5.362871E-1,9.746559E-1,1.7534348E-1,-7.459656E-1,6.5209687E-1,-1.1807306E0,-6.146722E-2,1.8000129E-1,9.660546E-1,3.0654332E-1,-1.2820772E0,3.1211266E-1,1.0066394E0,9.6641374E-1,-1.5353326E-1,1.1483613E0,-1.6698448E-1,1.0519129E0,4.0395105E-1,1.1731554E0,1.6679E-1,-6.208032E-1,5.420149E-1,-1.2858866E0,-1.1791987E-3],"categories":[],"categories_nodes":[],"categories_segments":[],"categories_sizes":[],"default_left":[1,1,1,1,0,1,0,1,0,1,1,1,1,1,1,1,0,0,1,0,1,0,0,0,0,0,1,1,1,0,1,0,0,0,0,0,0,0,0],"id":16,"left_children":[1,3,5,7,-1,9,-1,11,-1,13,15,17,19,21,23,25,-1,-1,27,-1,29,-1,-1,-1,-1,-1,31,33,35,-1,37,-1,-1,-1,-1,-1,-1,-1,-1],"loss_changes":[2.6131073E2,4.656688E1,1.3367767E0,4.311867E0,0E0,1.0518379E0,0E0,4.2538323E0,0E0,4.410434E0,3.8424492E-1,3.8479478E0,5.563575E0,6.7271566E-1,2.6252513E0,9.828758E-2,0E0,0E0,3.1842704E0,0E0,4.6876807E0,0E0,0E0,0E0,0E0,0E0,6.9480896E-2,1.2527151E0,1.7105125E0,0E0,6.1700544E0,0E0,0E0,0E0,0E0,0E0,0E0,0E0,0E0],"parents":[2147483647,0,0,1,1,2,2,3,3,5,5,7,7,9,9,10,10,11,11,12,12,13,13,14,14,15,15,18,18,20,20,26,26,27,27,28,28,30,30],"right_children":[2,4,6,8,-1,10,-1,12,-1,14,16,18,20,22,24,26,-1,-1,28,-1,30,-1,-1,-1,-1,-1,32,34,36,-1,38,-1,-1,-1,-1,-1,-1,-1,-1],"split_conditions":[5.495E2,5E0,9.5E5,2.75E7,-1.0987677E-1,4.5E5,1.10354505E-1,5.7E6,9.308604E-2,3E6,2.85E7,9.5E5,7.15E6,1.5E5,7.585E2,-5E4,1.753435E-2,-7.459656E-2,4.5E0,-1.1807306E-1,2.8E6,1.800013E-2,9.6605465E-2,3.0654332E-2,-1.2820773E-1,3.1211266E-2,1.9E1,4.25E6,3.45E6,1.14836134E-1,1.03E7,1.0519129E-1,4.0395107E-2,1.17315546E-1,1.6679E-2,-6.208032E-2,5.420149E-2,-1.2858866E-1,-1.1791987E-4],"split_indices":[4,3,5,2,0,6,0,7,0,2,2,2,2,5,4,5,0,0,0,0,1,0,0,0,0,0,3,7,2,0,2,0,0,0,0,0,0,0,0],"split_type":[0,0,0,0,0,0,0,0,0,0,0,0,0,0,0,0,0,0,0,0,0,0,0,0,0,0,0,0,0,0,0,0,0,0,0,0,0,0,0],"sum_hessian":[3.3823026E2,1.5619827E2,1.82032E2,5.4803722E1,1.0139454E2,2.9914078E1,1.5211792E2,5.082404E1,3.9796839E0,1.0320574E1,1.9593504E1,1.2479053E1,3.8344986E1,7.7693024E0,2.5512712E0,1.8465105E1,1.1283994E0,1.4900469E0,1.0989006E1,4.1264386E0,3.4218548E1,1.9285681E0,5.8407345E0,1.4742095E0,1.0770617E0,1.3457705E0,1.7119335E1,7.761341E0,3.2276647E0,1.9521888E0,3.2266357E1,1.5229904E1,1.8894303E0,5.7957287E0,1.9656124E0,1.9949305E0,1.2327341E0,3.2924628E0,2.8973896E1],"tree_param":{"num_deleted":"0","num_feature":"11","num_nodes":"39","size_leaf_vector":"0"}},{"base_weights":[2.4000143E-1,-6.740832E-1,1.0416611E0,3.9217867E-2,-1.0864838E0,7.675619E-1,1.0913775E0,-1.0262081E-1,5.357469E-1,4.346337E-1,9.1653603E-1,1.2760146E-1,-9.8772436E-1,1.0495727E0,2.5257196E-2,7.87489E-1,-5.0077814E-1,9.533654E-1,1.6710153E-1,-4.1857447E-2,8.7985075E-1,-1.1031995E0,-1.9636881E-1,-6.9485873E-1,8.541331E-1,1.6932508E-1,9.4500136E-1,2.9206535E-1,-1.1652964E0,2.9733434E-1,9.872174E-1,1.7323805E-1,-8.6354446E-1,1.0327361E0,4.5147777E-2,-9.028282E-1,-2.0740137E-1,1.0350363E0,3.854357E-1,-2.1451773E-2,1.0740782E0,-1.8345946E-1,-1.0562952E0],"categories":[],"categories_nodes":[],"categories_segments":[],"categories_sizes":[],"default_left":[1,1,1,1,0,1,0,1,1,1,1,1,1,0,1,1,1,1,0,1,1,0,0,1,0,0,0,0,0,0,1,1,1,0,0,0,0,0,0,0,0,0,0],"id":17,"left_children":[1,3,5,7,-1,9,-1,11,13,15,17,19,21,-1,23,25,27,29,-1,31,33,-1,-1,35,-1,-1,-1,-1,-1,-1,37,39,41,-1,-1,-1,-1,-1,-1,-1,-1,-1,-1],"loss_changes":[2.3167918E2,4.3544563E1,1.45607E0,3.9384553E0,0E0,1.0505562E0,0E0,9.036749E0,3.2293777E0,4.0029106E0,3.7285423E-1,4.57346E0,6.186743E-1,0E0,4.921661E0,6.507821E-1,2.2400792E0,1.0987091E-1,0E0,5.451812E0,7.941494E-1,0E0,0E0,2.6201034E-1,0E0,0E0,0E0,0E0,0E0,0E0,8.57296E-2,4.339054E0,6.439886E-1,0E0,0E0,0E0,0E0,0E0,0E0,0E0,0E0,0E0,0E0],"parents":[2147483647,0,0,1,1,2,2,3,3,5,5,7,7,8,8,9,9,10,10,11,11,12,12,14,14,15,15,16,16,17,17,19,19,20,20,23,23,30,30,31,31,32,32],"right_children":[2,4,6,8,-1,10,-1,12,14,16,18,20,22,-1,24,26,28,30,-1,32,34,-1,-1,36,-1,-1,-1,-1,-1,-1,38,40,42,-1,-1,-1,-1,-1,-1,-1,-1,-1,-1],"split_conditions":[5.495E2,5E0,9.5E5,2.175E7,-1.0864838E-1,4.5E5,1.0913775E-1,5.8E6,8.15E6,3E6,2.85E7,1.455E7,2.045E7,1.04957275E-1,2.755E7,1.5E5,7.585E2,-5E4,1.6710153E-2,3.75E6,1.925E7,-1.1031995E-1,-1.9636882E-2,2.565E7,8.5413314E-2,1.6932508E-2,9.450014E-2,2.9206535E-2,-1.1652964E-1,2.9733434E-2,1.9E1,1.03E7,3.495E2,1.0327361E-1,4.5147776E-3,-9.028282E-2,-2.0740137E-2,1.0350364E-1,3.854357E-2,-2.1451775E-3,1.0740782E-1,-1.8345946E-2,-1.0562952E-1],"split_indices":[4,3,5,2,0,6,0,1,1,2,2,2,2,0,2,5,4,5,0,1,7,0,0,7,0,0,0,0,0,0,3,2,4,0,0,0,0,0,0,0,0,0,0],"split_type":[0,0,0,0,0,0,0,0,0,0,0,0,0,0,0,0,0,0,0,0,0,0,0,0,0,0,0,0,0,0,0,0,0,0,0,0,0,0,0,0,0,0,0],"sum_hessian":[3.1420444E2,1.4688239E2,1.6732204E2,5.414186E1,9.2740524E1,2.8213335E1,1.391087E2,4.2729156E1,1.1412704E1,9.932854E0,1.8280481E1,3.4588306E1,8.140851E0,5.161481E0,6.251224E0,7.3270764E0,2.6057773E0,1.7164839E1,1.1156423E0,2.8999872E1,5.588433E0,6.7603173E0,1.3805331E0,3.4315908E0,2.8196332E0,1.9092276E0,5.4178486E0,1.4437319E0,1.1620455E0,1.3223263E0,1.5842512E1,2.3608873E1,5.3909984E0,4.5227838E0,1.0656489E0,1.8080742E0,1.6235166E0,1.4009343E1,1.8331685E0,2.0215979E1,3.3928957E0,1.6215293E0,3.769469E0],"tree_param":{"num_deleted":"0","num_feature":"11","num_nodes":"43","size_leaf_vector":"0"}},{"base_weights":[2.3510733E-1,-6.524952E-1,1.0268232E0,3.7170455E-2,-1.0753994E0,7.410392E-1,1.0804622E0,-3.9232895E-2,8.834446E-1,4.0911177E-1,8.942563E-1,4.53067E-2,-9.2472637E-1,7.619752E-1,-4.6728066E-1,9.3446445E-1,1.7242065E-1,-7.3792815E-2,8.4850794E-1,1.592606E-1,9.2470783E-1,-1.1038758E0,3.1111196E-1,2.8327245E-1,9.7060853E-1,1.1526225E-1,-9.2483836E-1,1.0038072E0,6.685309E-2,1.0217382E0,3.676965E-1,-2.6965776E-2,9.0960485E-1,-1.0444465E0,-1.9942173E-1],"categories":[],"categories_nodes":[],"categories_segments":[],"categories_sizes":[],"default_left":[1,1,1,1,0,1,0,1,0,1,1,1,0,1,1,1,0,1,1,0,0,0,0,0,1,1,1,0,0,0,0,0,0,0,0],"id":18,"left_children":[1,3,5,7,-1,9,-1,11,-1,13,15,17,-1,19,21,23,-1,25,27,-1,-1,-1,-1,-1,29,31,33,-1,-1,-1,-1,-1,-1,-1,-1],"loss_changes":[2.0586102E2,4.0368492E1,1.5710754E0,3.4955213E0,0E0,1.0395164E0,0E0,3.7886577E0,0E0,3.624947E0,3.6314106E-1,4.524433E0,0E0,6.291733E-1,2.1541488E0,1.2244511E-1,0E0,6.7899957E0,6.7374325E-1,0E0,0E0,0E0,0E0,0E0,1.0471058E-1,3.9649453E0,4.5644474E-1,0E0,0E0,0E0,0E0,0E0,0E0,0E0,0E0],"parents":[2147483647,0,0,1,1,2,2,3,3,5,5,7,7,9,9,10,10,11,11,13,13,14,14,15,15,17,17,18,18,24,24,25,25,26,26],"right_children":[2,4,6,8,-1,10,-1,12,-1,14,16,18,-1,20,22,24,-1,26,28,-1,-1,-1,-1,-1,30,32,34,-1,-1,-1,-1,-1,-1,-1,-1],"split_conditions":[5.495E2,5E0,9.5E5,2.75E7,-1.07539944E-1,4.5E5,1.08046226E-1,8.45E6,8.834446E-2,3E6,8.6E6,2.165E7,-9.2472635E-2,1.5E5,2.5E0,-5E4,1.7242065E-2,5.8E6,8.05E6,1.5926061E-2,9.247079E-2,-1.1038758E-1,3.1111196E-2,2.8327245E-2,1.9E1,1.5E7,1.95E7,1.0038072E-1,6.685309E-3,1.0217382E-1,3.676965E-2,-2.6965777E-3,9.096049E-2,-1.04444645E-1,-1.9942174E-2],"split_indices":[4,3,5,2,0,6,0,1,0,2,1,2,0,5,0,5,0,1,1,0,0,0,0,0,3,2,2,0,0,0,0,0,0,0,0],"split_type":[0,0,0,0,0,0,0,0,0,0,0,0,0,0,0,0,0,0,0,0,0,0,0,0,0,0,0,0,0,0,0,0,0,0,0],"sum_hessian":[2.9099173E2,1.3727115E2,1.5372057E2,5.2525497E1,8.474566E1,2.6633734E1,1.2708684E2,4.905074E1,3.4747598E0,9.57049E0,1.7063244E1,4.5642048E1,3.4086907E0,6.916316E0,2.6541739E0,1.5883901E1,1.1793427E0,4.053901E1,5.1030397E0,1.8910557E0,5.0252604E0,1.2300504E0,1.4241235E0,1.2999835E0,1.4583918E1,3.3877804E1,6.6612034E0,4.020115E0,1.0829248E0,1.2803455E1,1.7804621E0,2.9552454E1,4.3253508E0,5.3408113E0,1.320392E0],"tree_param":{"num_deleted":"0","num_feature":"11","num_nodes":"35","size_leaf_vector":"0"}},{"base_weights":[2.3016971E-1,-6.2938064E-1,1.01263E0,3.5603147E-2,-1.0653396E0,7.1485174E-1,1.0706236E0,-3.653506E-2,8.609966E-1,3.849274E-1,8.721348E-1,4.7555447E-1,-1.77736E-1,7.3708135E-1,-4.3442085E-1,9.131921E-1,1.3281332E-1,1.2394351E0,-5.1724788E-2,-1.2022862E0,-4.1897476E-2,1.4977446E-1,9.0502524E-1,2.971347E-1,-1.0357902E0,2.6988924E-1,9.510402E-1,-4.873972E-1,1.0211684E0,-1.1240342E0,5.253115E-2,1.0045298E0,3.5070586E-1,4.0246028E-1,-1.1260803E0,6.7209375E-1,-2.0730166E-1],"categories":[],"categories_nodes":[],"categories_segments":[],"categories_sizes":[],"default_left":[1,1,1,1,0,1,0,1,0,1,1,1,1,1,1,1,0,0,1,0,1,0,0,0,0,0,1,1,0,0,1,0,0,0,0,0,0],"id":19,"left_children":[1,3,5,7,-1,9,-1,11,-1,13,15,17,19,21,23,25,-1,-1,27,-1,29,-1,-1,-1,-1,-1,31,33,-1,-1,35,-1,-1,-1,-1,-1,-1],"loss_changes":[1.8283446E2,3.7640774E1,1.6902313E0,3.1473117E0,0E0,1.0232134E0,0E0,3.6336176E0,0E0,3.2760165E0,3.9303112E-1,4.4466767E0,5.405572E0,6.077194E-1,1.9392996E0,1.3001633E-1,0E0,0E0,3.9554343E0,0E0,3.701874E0,0E0,0E0,0E0,0E0,0E0,1.1664009E-1,3.8279195E0,0E0,0E0,5.57147E0,0E0,0E0,0E0,0E0,0E0,0E0],"parents":[2147483647,0,0,1,1,2,2,3,3,5,5,7,7,9,9,10,10,11,11,12,12,13,13,14,14,15,15,18,18,20,20,26,26,27,27,30,30],"right_children":[2,4,6,8,-1,10,-1,12,-1,14,16,18,20,22,24,26,-1,-1,28,-1,30,-1,-1,-1,-1,-1,32,34,-1,-1,36,-1,-1,-1,-1,-1,-1],"split_conditions":[5.495E2,5E0,9.5E5,2.75E7,-1.0653396E-1,4.5E5,1.0706236E-1,1.55E6,8.609966E-2,3E6,2.85E7,1.5E0,1.2E6,1.5E5,7.585E2,-5E4,1.3281332E-2,1.2394351E-1,3.45E6,-1.20228626E-1,5.35E6,1.4977447E-2,9.050252E-2,2.971347E-2,-1.0357902E-1,2.6988924E-2,1.9E1,1.15E6,1.0211684E-1,-1.12403415E-1,3.45E6,1.0045298E-1,3.5070587E-2,4.024603E-2,-1.1260803E-1,6.720938E-2,-2.0730166E-2],"split_indices":[4,3,5,2,0,6,0,1,0,2,2,0,5,5,4,5,0,0,2,0,2,0,0,0,0,0,3,7,0,0,8,0,0,0,0,0,0],"split_type":[0,0,0,0,0,0,0,0,0,0,0,0,0,0,0,0,0,0,0,0,0,0,0,0,0,0,0,0,0,0,0,0,0,0,0,0,0],"sum_hessian":[2.6989935E2,1.287072E2,1.4119214E2,5.1330017E1,7.737718E1,2.5187765E1,1.1600437E2,4.808334E1,3.2466786E0,9.24415E0,1.5943615E1,9.88084E0,3.82025E1,6.5355787E0,2.7085712E0,1.4881987E1,1.0616283E0,3.4835396E0,6.3973007E0,3.5530531E0,3.4649445E1,1.8739854E0,4.6615934E0,1.450259E0,1.2583122E0,1.2787075E0,1.3603279E1,4.93788E0,1.4594206E0,1.9057962E0,3.274365E1,1.1872188E1,1.7310913E0,2.2177777E0,2.7201023E0,9.205885E0,2.3537764E1],"tree_param":{"num_deleted":"0","num_feature":"11","num_nodes":"37","size_leaf_vector":"0"}},{"base_weights":[2.2491087E-1,-6.043622E-1,9.9911374E-1,3.3791542E-2,-1.0561538E0,6.896346E-1,1.0617112E0,-8.896069E-2,5.0722224E-1,4.851705E-1,9.88285E-1,1.0718138E-1,-8.747513E-1,9.871342E-1,2.4170393E-2,6.7393106E-1,-7.882612E-1,-3.171035E-2,8.812981E-1,-1.0385683E0,-1.15736425E-1,-5.9812284E-1,7.832365E-1,7.8651465E-2,7.9069346E-1,3.881809E-1,-3.3672172E-1,9.803037E-1,2.4794053E-1,-8.1624645E-1,-1.4983664E-1,-3.1836218E-1,3.9216954E-1,9.1509444E-1,5.634809E-2,-7.0630944E-1,5.868231E-1,-1.06681E0,-5.476906E-2,8.79912E-2,9.9643505E-1],"categories":[],"categories_nodes":[],"categories_segments":[],"categories_sizes":[],"default_left":[1,1,1,1,0,1,0,1,1,1,0,1,1,0,1,1,0,1,1,0,0,1,0,1,1,1,1,0,0,0,0,0,0,1,0,0,0,0,0,0,0],"id":20,"left_children":[1,3,5,7,-1,9,-1,11,13,15,-1,17,19,-1,21,23,-1,25,27,-1,-1,29,-1,31,33,35,37,-1,-1,-1,-1,-1,-1,39,-1,-1,-1,-1,-1,-1,-1],"loss_changes":[1.6231668E2,3.527824E1,1.7986755E0,3.0460145E0,0E0,1.0368605E0,0E0,6.5449133E0,2.4754643E0,4.5466585E0,0E0,3.7251E0,9.329524E-1,0E0,3.4907002E0,9.8648787E-1,0E0,3.9882882E0,8.7136745E-2,0E0,0E0,2.769214E-1,0E0,5.7102376E-1,1.0906234E0,3.2708497E0,3.6432614E0,0E0,0E0,0E0,0E0,0E0,0E0,6.2721634E-1,0E0,0E0,0E0,0E0,0E0,0E0,0E0],"parents":[2147483647,0,0,1,1,2,2,3,3,5,5,7,7,8,8,9,9,11,11,12,12,14,14,15,15,17,17,18,18,21,21,23,23,24,24,25,25,26,26,33,33],"right_children":[2,4,6,8,-1,10,-1,12,14,16,-1,18,20,-1,22,24,-1,26,28,-1,-1,30,-1,32,34,36,38,-1,-1,-1,-1,-1,-1,40,-1,-1,-1,-1,-1,-1,-1],"split_conditions":[5.495E2,5E0,9.5E5,2.185E7,-1.0561538E-1,1.85E6,1.0617112E-1,5.8E6,8.15E6,9.95E6,9.88285E-2,1.5E7,2.045E7,9.871342E-2,2.755E7,5E4,-7.882612E-2,5.7E6,5.195E2,-1.03856824E-1,-1.15736425E-2,2.565E7,7.8323655E-2,7.745E2,4.65E6,9.5E5,7.15E6,9.803037E-2,2.4794053E-2,-8.162465E-2,-1.4983664E-2,-3.183622E-2,3.9216954E-2,6.14E2,5.634809E-3,-7.0630945E-2,5.868231E-2,-1.06681004E-1,-5.4769064E-3,8.79912E-3,9.9643506E-2],"split_indices":[4,3,5,2,0,6,0,1,1,2,0,2,2,0,2,6,0,7,4,0,0,7,0,4,2,2,2,0,0,0,0,0,0,4,0,0,0,0,0,0,0],"split_type":[0,0,0,0,0,0,0,0,0,0,0,0,0,0,0,0,0,0,0,0,0,0,0,0,0,0,0,0,0,0,0,0,0,0,0,0,0,0,0,0,0],"sum_hessian":[2.5087915E2,1.21237366E2,1.2964178E2,5.0637417E1,7.0599945E1,2.3832401E1,1.0580938E2,4.0856213E1,9.781201E0,1.57049265E1,8.127474E0,3.338624E1,7.469975E0,4.383078E0,5.3981237E0,1.4087513E1,1.6174139E0,2.912049E1,4.26575E0,5.8410087E0,1.6289661E0,3.0828156E0,2.3153083E0,2.5845459E0,1.1502967E1,1.2138059E1,1.698243E1,3.2153432E0,1.0504067E0,1.5216213E0,1.5611943E0,1.1335986E0,1.4509474E0,9.626127E0,1.8768399E0,1.4719785E0,1.066608E1,3.9557528E0,1.3026677E1,1.0483057E0,8.577821E0],"tree_param":{"num_deleted":"0","num_feature":"11","num_nodes":"41","size_leaf_vector":"0"}},{"base_weights":[2.1960506E-1,-5.8383876E-1,9.8530763E-1,3.0523049E-2,-1.0477114E0,6.617317E-1,1.0535945E0,-7.662708E-2,5.25978E-1,4.577731E-1,9.704649E-1,9.780925E-2,-7.0639735E-1,7.214489E-1,-3.1142458E-1,6.461586E-1,-7.1387506E-1,-3.3034846E-2,8.493356E-1,-1.0109562E0,-1.0233472E-2,-2.2827739E-2,8.507247E-1,7.749811E-1,7.300176E-2,1.5198661E-1,-6.5604687E-1,9.481488E-1,2.368018E-1,7.285838E-1,-7.192122E-1,2.1299562E-1,8.808505E-1,-4.1446814E-1,6.023364E-1,-2.977853E-2,1.0175685E0,-1.0744737E0,-1.9538602E-1,-2.9759037E-1,6.563659E-1,8.74159E-2,9.689723E-1],"categories":[],"categories_nodes":[],"categories_segments":[],"categories_sizes":[],"default_left":[1,1,1,1,0,1,0,1,1,1,0,1,1,1,0,1,0,1,1,0,1,0,0,1,1,1,1,0,0,0,0,1,1,0,0,0,0,0,0,0,0,0,0],"id":21,"left_children":[1,3,5,7,-1,9,-1,11,13,15,-1,17,19,21,-1,23,-1,25,27,-1,29,-1,-1,31,33,35,37,-1,-1,-1,-1,39,41,-1,-1,-1,-1,-1,-1,-1,-1,-1,-1],"loss_changes":[1.4437738E2,3.271736E1,1.9555893E0,2.7113574E0,0E0,1.0424509E0,0E0,4.709373E0,1.7098985E0,4.017203E0,0E0,3.3670862E0,1.958013E0,7.562361E-1,0E0,1.0069385E0,0E0,3.5444195E0,8.251095E-2,0E0,2.5331256E0,0E0,0E0,5.059118E-1,1.2165791E0,3.7831397E0,1.1452665E0,0E0,0E0,0E0,0E0,9.122096E-1,5.788131E-1,0E0,0E0,0E0,0E0,0E0,0E0,0E0,0E0,0E0,0E0],"parents":[2147483647,0,0,1,1,2,2,3,3,5,5,7,7,8,8,9,9,11,11,12,12,13,13,15,15,17,17,18,18,20,20,23,23,24,24,25,25,26,26,31,31,32,32],"right_children":[2,4,6,8,-1,10,-1,12,14,16,-1,18,20,22,-1,24,-1,26,28,-1,30,-1,-1,32,34,36,38,-1,-1,-1,-1,40,42,-1,-1,-1,-1,-1,-1,-1,-1,-1,-1],"split_conditions":[5.495E2,5E0,9.5E5,2.32E7,-1.0477114E-1,1.85E6,1.0535945E-1,5.8E6,9.65E6,9.95E6,9.704649E-2,1.5E7,2.045E7,2.05E6,-3.1142458E-2,8.345E2,-7.138751E-2,3.75E6,5.195E2,-1.0109562E-1,7.25E6,-2.2827738E-3,8.507247E-2,5E4,4.5E5,1.03E7,4.35E6,9.481488E-2,2.368018E-2,7.2858386E-2,-7.192122E-2,7.745E2,5.87E2,-4.1446816E-2,6.023364E-2,-2.9778532E-3,1.0175685E-1,-1.0744738E-1,-1.9538602E-2,-2.9759038E-2,6.563659E-2,8.74159E-3,9.689724E-2],"split_indices":[4,3,5,2,0,6,0,1,1,2,0,2,2,6,0,4,0,1,4,0,1,0,0,6,6,2,8,0,0,0,0,4,4,0,0,0,0,0,0,0,0,0,0],"split_type":[0,0,0,0,0,0,0,0,0,0,0,0,0,0,0,0,0,0,0,0,0,0,0,0,0,0,0,0,0,0,0,0,0,0,0,0,0,0,0,0,0,0,0],"sum_hessian":[2.3274896E2,1.1369133E2,1.19057625E2,4.931362E1,6.437771E1,2.2610163E1,9.6447464E1,4.124012E1,8.073502E0,1.5110469E1,7.4996943E0,3.295641E1,8.2837105E0,6.6578584E0,1.4156435E0,1.3403817E1,1.7066512E0,2.8883677E1,4.072734E0,5.44809E0,2.83562E0,1.1071438E0,5.5507145E0,1.0656531E1,2.7472863E0,2.2852894E1,6.030783E0,3.0351887E0,1.0375452E0,1.3750479E0,1.4605719E0,2.166736E0,8.489795E0,1.5431681E0,1.2041181E0,1.9684835E1,3.1680584E0,2.4620214E0,3.5687618E0,1.15985E0,1.0068859E0,1.0477768E0,7.442018E0],"tree_param":{"num_deleted":"0","num_feature":"11","num_nodes":"43","size_leaf_vector":"0"}},{"base_weights":[2.1486379E-1,-5.627152E-1,9.720154E-1,2.9062927E-2,-1.0398978E0,6.3599855E-1,1.0461602E0,-3.3659562E-2,8.0514E-1,4.3396074E-1,9.531625E-1,4.278011E-2,-8.5102206E-1,6.2132204E-1,-6.479247E-1,-6.1894514E-2,7.798695E-1,3.1516197E-1,9.2785305E-1,8.8700846E-2,-8.224924E-1,9.303044E-1,7.000168E-2,-1.681007E-1,7.0783365E-1,-4.5432493E-2,7.5031275E-1,-9.528078E-1,-1.5002775E-1,-5.713536E-1,5.773573E-1,8.632767E-1,5.8602393E-2],"categories":[],"categories_nodes":[],"categories_segments":[],"categories_sizes":[],"default_left":[1,1,1,1,0,1,0,1,0,1,0,1,0,1,0,1,1,1,0,1,1,0,0,1,1,0,0,0,0,0,0,0,0],"id":22,"left_children":[1,3,5,7,-1,9,-1,11,-1,13,-1,15,-1,17,-1,19,21,23,-1,25,27,-1,-1,29,31,-1,-1,-1,-1,-1,-1,-1,-1],"loss_changes":[1.2836908E2,3.0455406E1,2.0842972E0,2.4156673E0,0E0,1.0282393E0,0E0,2.9329214E0,0E0,3.5609457E0,0E0,3.392705E0,0E0,1.001893E0,0E0,4.526758E0,5.1835275E-1,1.7157364E0,0E0,2.9945679E0,4.2874146E-1,0E0,0E0,1.7067139E0,4.3727374E-1,0E0,0E0,0E0,0E0,0E0,0E0,0E0,0E0],"parents":[2147483647,0,0,1,1,2,2,3,3,5,5,7,7,9,9,11,11,13,13,15,15,16,16,17,17,19,19,20,20,23,23,24,24],"right_children":[2,4,6,8,-1,10,-1,12,-1,14,-1,16,-1,18,-1,20,22,24,-1,26,28,-1,-1,30,32,-1,-1,-1,-1,-1,-1,-1,-1],"split_conditions":[5.495E2,5E0,9.5E5,2.75E7,-1.0398978E-1,1.85E6,1.0461602E-1,8.45E6,8.051401E-2,9.95E6,9.531625E-2,2.165E7,-8.510221E-2,5E-1,-6.479248E-2,5.8E6,8.05E6,2.5E0,9.278531E-2,1.455E7,1.95E7,9.3030445E-2,7.000168E-3,4.5E5,6.5E5,-4.5432495E-3,7.503127E-2,-9.528078E-2,-1.5002775E-2,-5.7135362E-2,5.773573E-2,8.632767E-2,5.8602393E-3],"split_indices":[4,3,5,2,0,6,0,1,0,2,0,2,0,9,0,1,1,0,0,2,2,0,0,6,5,0,0,0,0,0,0,0,0],"split_type":[0,0,0,0,0,0,0,0,0,0,0,0,0,0,0,0,0,0,0,0,0,0,0,0,0,0,0,0,0,0,0,0,0],"sum_hessian":[2.1610939E2,1.0674318E2,1.0936622E2,4.806922E1,5.8673954E1,2.1501476E1,8.7864746E1,4.535987E1,2.7093525E0,1.4581263E1,6.9202127E0,4.234722E1,3.0126479E0,1.2791697E1,1.7895662E0,3.78834E1,4.463822E0,7.4144125E0,5.377284E0,3.235969E1,5.5237103E0,3.4270341E0,1.0367879E0,3.5801783E0,3.8342345E0,2.767938E1,4.68031E0,4.27783E0,1.24588E0,2.474928E0,1.1052502E0,2.8275533E0,1.0066813E0],"tree_param":{"num_deleted":"0","num_feature":"11","num_nodes":"33","size_leaf_vector":"0"}},{"base_weights":[2.1012396E-1,-5.467942E-1,9.527778E-1,1.294751E-2,-1.032427E0,5.250861E-1,1.0129187E0,4.250867E-1,-1.0208575E-1,2.970311E-1,8.8237023E-1,3.6923793E-1,1.0229745E0,1.1587878E0,-6.574849E-2,-9.954291E-1,6.384553E-2,5.9469634E-1,-1.0310185E0,3.127865E-1,1.0307484E0,-4.7031772E-1,9.484594E-1,-1.286644E0,-2.1354873E-1,9.7678816E-1,-5.4925967E-2,1.825229E-1,9.11945E-1,3.719047E-1,-1.0720512E0,-1.1856537E0,1.1606573E-1,-3.2123578E-1,7.088082E-1,9.818552E-1,-3.247661E-2,2.3479052E-1,-7.525534E-1],"categories":[],"categories_nodes":[],"categories_segments":[],"categories_sizes":[],"default_left":[1,1,1,1,0,1,1,1,1,1,0,0,1,0,1,1,1,1,0,0,0,1,0,0,0,0,1,1,0,0,0,0,1,1,0,0,0,0,0],"id":23,"left_children":[1,3,5,7,-1,9,11,13,15,17,-1,-1,19,-1,21,23,25,27,-1,-1,-1,29,-1,-1,-1,-1,31,33,-1,-1,-1,-1,35,37,-1,-1,-1,-1,-1],"loss_changes":[1.1410955E2,2.7388908E1,2.1010056E0,2.3082635E0,0E0,9.353037E-1,1.9618988E-1,3.8999867E0,5.719304E0,4.7550116E0,0E0,0E0,1.5644836E-1,0E0,3.4447656E0,1.0998344E0,3.6446128E0,1.035667E0,0E0,0E0,0E0,3.3851128E0,0E0,0E0,0E0,0E0,5.986609E0,1.6192198E0,0E0,0E0,0E0,0E0,3.528519E0,9.8486304E-1,0E0,0E0,0E0,0E0,0E0],"parents":[2147483647,0,0,1,1,2,2,3,3,5,5,6,6,7,7,8,8,9,9,12,12,14,14,15,15,16,16,17,17,21,21,26,26,27,27,32,32,33,33],"right_children":[2,4,6,8,-1,10,12,14,16,18,-1,-1,20,-1,22,24,26,28,-1,-1,-1,30,-1,-1,-1,-1,32,34,-1,-1,-1,-1,36,38,-1,-1,-1,-1,-1],"split_conditions":[5.475E2,5E0,5.5E5,1.55E6,-1.03242695E-1,1.9E6,5E4,1.5E0,7.15E6,9.75E6,8.8237025E-2,3.6923792E-2,5.515E2,1.1587878E-1,3.45E6,4.2E6,2.8E6,2.5E0,-1.0310185E-1,3.127865E-2,1.0307484E-1,1.15E6,9.484594E-2,-1.286644E-1,-2.1354875E-2,9.767882E-2,1.03E7,2.5E5,9.11945E-2,3.719047E-2,-1.07205115E-1,-1.1856537E-1,3.75E6,1.15E6,7.088082E-2,9.8185524E-2,-3.2476613E-3,2.3479052E-2,-7.525534E-2],"split_indices":[4,3,5,1,0,6,6,0,2,2,0,0,4,0,2,5,1,0,0,0,0,7,0,0,0,0,2,6,0,0,0,0,1,2,0,0,0,0,0],"split_type":[0,0,0,0,0,0,0,0,0,0,0,0,0,0,0,0,0,0,0,0,0,0,0,0,0,0,0,0,0,0,0,0,0,0,0,0,0,0,0],"sum_hessian":[2.0106882E2,9.970872E1,1.0136011E2,4.6772243E1,5.2936474E1,1.3695496E1,8.766461E1,9.617934E0,3.715431E1,9.477409E0,4.2180867E0,1.9286556E0,8.5735954E1,3.3097162E0,6.308218E0,5.036998E0,3.211731E1,8.19321E0,1.2841992E0,1.374809E0,8.4361145E1,4.8927593E0,1.4154589E0,3.1996841E0,1.8373137E0,2.8657203E0,2.9251589E1,4.2486463E0,3.9445634E0,2.1981044E0,2.6946547E0,3.0629618E0,2.6188627E1,2.36985E0,1.8787965E0,3.0136166E0,2.317501E1,1.2343067E0,1.1355432E0],"tree_param":{"num_deleted":"0","num_feature":"11","num_nodes":"39","size_leaf_vector":"0"}},{"base_weights":[2.0483516E-1,-5.165758E-1,9.456163E-1,2.8239582E-2,-1.0258622E0,5.8254653E-1,1.0330874E0,-3.208539E-2,7.854442E-1,2.5264034E-1,7.6667804E-1,4.0782183E-2,-8.1769586E-1,6.373015E-1,-4.9623445E-1,9.393183E-1,4.056361E-1,-5.938758E-2,7.5252056E-1,4.75528E-2,8.41536E-1,-1.0347427E0,2.6860672E-1,7.743402E-1,-1.3265367E-1,8.268783E-2,-7.924972E-1,9.045832E-1,6.806249E-2,-8.458845E-1,5.8710784E-1,-3.1674616E-2,7.818485E-1,-9.271505E-1,-1.4006181E-1],"categories":[],"categories_nodes":[],"categories_segments":[],"categories_sizes":[],"default_left":[1,1,1,1,0,1,0,1,0,1,1,1,0,1,1,0,1,1,1,0,0,0,0,0,1,1,1,0,0,0,0,0,0,0,0],"id":24,"left_children":[1,3,5,7,-1,9,-1,11,-1,13,15,17,-1,19,21,-1,23,25,27,-1,-1,-1,-1,-1,29,31,33,-1,-1,-1,-1,-1,-1,-1,-1],"loss_changes":[1.0126684E2,2.6717306E1,2.3641968E0,2.192411E0,0E0,1.0470529E0,0E0,2.6039484E0,0E0,2.853478E0,4.0541553E-1,3.042332E0,0E0,7.1358824E-1,1.7405617E0,0E0,1.2621007E0,4.00112E0,4.8595524E-1,0E0,0E0,0E0,0E0,0E0,2.1539586E0,2.6279309E0,4.173267E-1,0E0,0E0,0E0,0E0,0E0,0E0,0E0,0E0],"parents":[2147483647,0,0,1,1,2,2,3,3,5,5,7,7,9,9,10,10,11,11,13,13,14,14,16,16,17,17,18,18,24,24,25,25,26,26],"right_children":[2,4,6,8,-1,10,-1,12,-1,14,16,18,-1,20,22,-1,24,26,28,-1,-1,-1,-1,-1,30,32,34,-1,-1,-1,-1,-1,-1,-1,-1],"split_conditions":[5.495E2,5E0,9.5E5,2.75E7,-1.02586225E-1,4.5E5,1.0330874E-1,8.45E6,7.854442E-2,3E6,1.3E1,2.165E7,-8.1769586E-2,1.5E5,3.75E6,9.393183E-2,9.75E6,5.8E6,8.05E6,4.7552804E-3,8.41536E-2,-1.03474274E-1,2.6860673E-2,7.7434026E-2,2.1E6,1.5E7,1.95E7,9.0458326E-2,6.8062493E-3,-8.458845E-2,5.8710784E-2,-3.1674616E-3,7.818485E-2,-9.271505E-2,-1.4006182E-2],"split_indices":[4,3,5,2,0,6,0,1,0,2,3,2,0,5,7,0,2,1,1,0,0,0,0,0,6,2,2,0,0,0,0,0,0,0,0],"split_type":[0,0,0,0,0,0,0,0,0,0,0,0,0,0,0,0,0,0,0,0,0,0,0,0,0,0,0,0,0,0,0,0,0,0,0],"sum_hessian":[1.8757956E2,9.518558E1,9.2393974E1,4.644501E1,4.874057E1,1.9425121E1,7.296886E1,4.3904827E1,2.5401828E0,7.8078876E0,1.1617234E1,4.1045803E1,2.8590248E0,5.2567396E0,2.551148E0,6.7756276E0,4.8416066E0,3.6785225E1,4.2605777E0,1.6692985E0,3.5874412E0,1.2900004E0,1.2611474E0,2.6131783E0,2.2284281E0,3.1556784E1,5.228442E0,3.2229466E0,1.037631E0,1.0312783E0,1.1971499E0,2.7941122E1,3.6156626E0,3.9849455E0,1.2434967E0],"tree_param":{"num_deleted":"0","num_feature":"11","num_nodes":"35","size_leaf_vector":"0"}},{"base_weights":[1.9998261E-1,-5.015503E-1,9.2640215E-1,1.2230917E-2,-1.0190521E0,5.591273E-1,1.0179754E0,4.102079E-1,-1.0089708E-1,3.5901088E-1,9.0529263E-1,2.722915E-1,1.0270332E0,1.1321245E0,-1.02682754E-1,-9.4305617E-1,5.8833864E-2,7.4360317E-1,-1.7785712E-1,-4.912405E-1,7.2138536E-1,-1.9839256E-1,-1.1785386E0,9.21829E-1,-5.626105E-2,6.056707E-2,9.2523307E-1,-6.7324364E-1,1.3345477E-1,3.4915787E-1,-1.1835155E0,-1.1292893E0,1.079432E-1,7.431129E-1,-5.4436445E-1,9.484597E-1,-3.6319185E-2],"categories":[],"categories_nodes":[],"categories_segments":[],"categories_sizes":[],"default_left":[1,1,1,1,0,1,1,1,1,1,0,0,0,0,1,1,1,1,1,1,0,0,0,0,1,0,0,0,1,0,0,0,1,0,0,0,0],"id":25,"left_children":[1,3,5,7,-1,9,11,13,15,17,-1,-1,-1,-1,19,21,23,25,27,29,-1,-1,-1,-1,31,-1,-1,-1,33,-1,-1,-1,35,-1,-1,-1,-1],"loss_changes":[9.005672E1,2.3964195E1,2.3475113E0,2.1210854E0,0E0,1.0276146E0,1.8096924E-1,3.9750228E0,5.0018606E0,3.0291598E0,0E0,0E0,0E0,0E0,2.598885E0,8.044801E-1,3.2153862E0,9.820237E-1,1.117388E0,3.5307617E0,0E0,0E0,0E0,0E0,5.2394004E0,0E0,0E0,0E0,2.4401994E0,0E0,0E0,0E0,3.199493E0,0E0,0E0,0E0,0E0],"parents":[2147483647,0,0,1,1,2,2,3,3,5,5,6,6,7,7,8,8,9,9,14,14,15,15,16,16,17,17,18,18,19,19,24,24,28,28,32,32],"right_children":[2,4,6,8,-1,10,12,14,16,18,-1,-1,-1,-1,20,22,24,26,28,30,-1,-1,-1,-1,32,-1,-1,-1,34,-1,-1,-1,36,-1,-1,-1,-1],"split_conditions":[5.475E2,5E0,9.5E5,4.25E6,-1.0190522E-1,1.85E6,5.515E2,1.5E0,7.15E6,3.15E6,9.052926E-2,2.722915E-2,1.02703325E-1,1.1321246E-1,2.3E6,1.85E6,2.8E6,7.5E5,3.75E6,1.15E6,7.213854E-2,-1.9839255E-2,-1.1785386E-1,9.21829E-2,1.03E7,6.056707E-3,9.252331E-2,-6.732436E-2,9.95E6,3.4915786E-2,-1.1835156E-1,-1.1292893E-1,3.75E6,7.431129E-2,-5.4436445E-2,9.484597E-2,-3.6319185E-3],"split_indices":[4,3,5,7,0,6,4,0,2,2,0,0,0,0,2,1,1,7,7,7,0,0,0,0,2,0,0,0,2,0,0,0,1,0,0,0,0],"split_type":[0,0,0,0,0,0,0,0,0,0,0,0,0,0,0,0,0,0,0,0,0,0,0,0,0,0,0,0,0,0,0,0,0,0,0,0,0],"sum_hessian":[1.7480614E2,8.9083824E1,8.572232E1,4.5192547E1,4.3891277E1,1.8525898E1,6.719643E1,9.42167E0,3.5770878E1,1.30302725E1,5.4956255E0,1.1792151E0,6.601721E1,3.4119108E0,6.0097594E0,4.9210896E0,3.0849787E1,7.3674374E0,5.662835E0,4.3585405E0,1.6512191E0,1.6249667E0,3.296123E0,2.8053856E0,2.8044401E1,1.8276929E0,5.5397444E0,1.7366788E0,3.926156E0,2.1925256E0,2.1660147E0,2.9419897E0,2.5102411E1,2.016292E0,1.9098641E0,2.8606791E0,2.2241734E1],"tree_param":{"num_deleted":"0","num_feature":"11","num_nodes":"37","size_leaf_vector":"0"}},{"base_weights":[1.9469325E-1,-4.72461E-1,9.195651E-1,2.7160678E-2,-1.0132648E0,5.35455E-1,1.021562E0,-5.280182E-2,5.800401E-1,3.3850312E-1,8.8898593E-1,5.3086273E-2,-7.7840346E-1,7.984915E-1,-1.9810432E-1,7.1985596E-1,-1.6538398E-1,-4.5216717E-2,7.781917E-1,9.0268147E-1,2.0581888E-1,5.6821715E-2,9.0760773E-1,-6.1295605E-1,1.2678187E-1,1.0338748E-1,-7.424265E-1,7.2322077E-1,-4.9706218E-1,2.8657129E-3,9.3501645E-1,-9.5930076E-1,-1.3915472E-1],"categories":[],"categories_nodes":[],"categories_segments":[],"categories_sizes":[],"default_left":[1,1,1,1,0,1,0,1,1,1,0,1,0,1,0,1,1,1,0,0,0,0,0,0,1,1,1,0,0,0,0,0,0],"id":26,"left_children":[1,3,5,7,-1,9,-1,11,13,15,-1,17,-1,19,-1,21,23,25,-1,-1,-1,-1,-1,-1,27,29,31,-1,-1,-1,-1,-1,-1],"loss_changes":[7.992906E1,2.3334385E1,2.5528412E0,2.0558867E0,0E0,1.0013504E0,0E0,3.18674E0,1.156311E0,2.7374973E0,0E0,2.6484072E0,0E0,1.09594345E-1,0E0,9.372368E-1,9.5165855E-1,3.5196178E0,0E0,0E0,0E0,0E0,0E0,0E0,2.1723952E0,2.3605285E0,6.4634085E-1,0E0,0E0,0E0,0E0,0E0,0E0],"parents":[2147483647,0,0,1,1,2,2,3,3,5,5,7,7,8,8,9,9,11,11,13,13,15,15,16,16,17,17,24,24,25,25,26,26],"right_children":[2,4,6,8,-1,10,-1,12,14,16,-1,18,-1,20,-1,22,24,26,-1,-1,-1,-1,-1,-1,28,30,32,-1,-1,-1,-1,-1,-1],"split_conditions":[5.495E2,5E0,9.5E5,2.51E7,-1.0132648E-1,1.85E6,1.021562E-1,7.25E6,9.65E6,3.15E6,8.889859E-2,1.84E7,-7.784035E-2,2.845E7,-1.9810433E-2,7.5E5,3.75E6,5.15E6,7.781917E-2,9.026815E-2,2.0581888E-2,5.682172E-3,9.0760775E-2,-6.1295606E-2,9.95E6,1.45E7,1.605E7,7.232208E-2,-4.9706217E-2,2.865713E-4,9.350165E-2,-9.593008E-2,-1.3915472E-2],"split_indices":[4,3,5,2,0,6,0,1,1,2,0,2,0,7,0,7,7,1,0,0,0,0,0,0,2,2,2,0,0,0,0,0,0],"split_type":[0,0,0,0,0,0,0,0,0,0,0,0,0,0,0,0,0,0,0,0,0,0,0,0,0,0,0,0,0,0,0,0,0],"sum_hessian":[1.6338046E2,8.525868E1,7.812178E1,4.4810383E1,4.0448296E1,1.7703169E1,6.041861E1,3.993859E1,4.8717895E0,1.2626465E1,5.076703E0,3.5661324E1,4.2772703E0,3.7834885E0,1.0883012E0,6.9431396E0,5.683326E0,3.222958E1,3.4317431E0,2.7729442E0,1.0105442E0,1.8196825E0,5.123457E0,1.8110244E0,3.872301E0,2.7269117E1,4.9604626E0,1.8981953E0,1.9741058E0,2.522369E1,2.045426E0,3.2146444E0,1.7458179E0],"tree_param":{"num_deleted":"0","num_feature":"11","num_nodes":"33","size_leaf_vector":"0"}},{"base_weights":[1.8980561E-1,-4.5809805E-1,8.99777E-1,1.130462E-2,-1.0068057E0,5.1275986E-1,1.0063857E0,3.8926435E-1,-9.777893E-2,1.9144852E-1,7.0888376E-1,2.6979285E-1,1.0160952E0,-6.738295E-1,6.389286E-1,-8.970137E-1,5.621446E-2,5.640189E-1,-4.2748392E-1,8.9948845E-1,3.417456E-1,9.464371E-1,-2.1253668E-3,-1.1778816E0,-1.6907254E-1,8.70214E-1,-5.471803E-2,-3.074339E-2,7.981468E-1,2.3435953E-1,-8.955117E-1,7.248548E-1,-1.5860339E-1,1.1343985E0,3.1528983E-1,-5.09259E-1,4.224017E-1,-1.0802302E0,1.03528604E-1,-7.508808E-1,5.353945E-1,9.1631615E-1,-3.5622086E-2],"categories":[],"categories_nodes":[],"categories_segments":[],"categories_sizes":[],"default_left":[1,1,1,1,0,1,1,1,1,1,1,0,0,0,1,1,1,1,1,0,1,1,1,0,0,0,1,0,0,0,0,0,1,0,0,0,0,0,1,0,0,0,0],"id":27,"left_children":[1,3,5,7,-1,9,11,13,15,17,19,-1,-1,-1,21,23,25,27,29,-1,31,33,35,-1,-1,-1,37,-1,-1,-1,-1,-1,39,-1,-1,-1,-1,-1,41,-1,-1,-1,-1],"loss_changes":[7.109682E1,2.0875902E1,2.523037E0,1.8788344E0,0E0,9.952259E-1,1.3145828E-1,3.1378999E0,4.4131136E0,2.1256142E0,4.4657183E-1,0E0,0E0,0E0,1.7315872E0,9.837055E-1,2.8163157E0,7.9495656E-1,1.3373134E0,0E0,1.1299115E0,3.4602308E-1,1.0422814E0,0E0,0E0,0E0,4.6435947E0,0E0,0E0,0E0,0E0,0E0,1.6830379E0,0E0,0E0,0E0,0E0,0E0,2.8719473E0,0E0,0E0,0E0,0E0],"parents":[2147483647,0,0,1,1,2,2,3,3,5,5,6,6,7,7,8,8,9,9,10,10,14,14,15,15,16,16,17,17,18,18,20,20,21,21,22,22,26,26,32,32,38,38],"right_children":[2,4,6,8,-1,10,12,14,16,18,20,-1,-1,-1,22,24,26,28,30,-1,32,34,36,-1,-1,-1,38,-1,-1,-1,-1,-1,40,-1,-1,-1,-1,-1,42,-1,-1,-1,-1],"split_conditions":[5.475E2,5E0,9.5E5,1.55E6,-1.0068057E-1,4.5E5,5.515E2,9.5E5,7.15E6,3E6,1.3E1,2.6979286E-2,1.0160952E-1,-6.7382954E-2,4.5E0,4.2E6,2.8E6,1.5E5,7.585E2,8.994885E-2,9.75E6,1.35E6,6.5E5,-1.1778816E-1,-1.6907254E-2,8.70214E-2,1.03E7,-3.0743391E-3,7.981468E-2,2.3435954E-2,-8.955117E-2,7.2485484E-2,1.9E6,1.1343985E-1,3.1528983E-2,-5.09259E-2,4.224017E-2,-1.08023025E-1,3.75E6,-7.508808E-2,5.353945E-2,9.163161E-2,-3.5622087E-3],"split_indices":[4,3,5,1,0,6,4,2,2,2,3,0,0,0,0,5,1,5,4,0,2,5,8,0,0,0,2,0,0,0,0,0,6,0,0,0,0,0,1,0,0,0,0],"split_type":[0,0,0,0,0,0,0,0,0,0,0,0,0,0,0,0,0,0,0,0,0,0,0,0,0,0,0,0,0,0,0,0,0,0,0,0,0,0,0,0,0,0,0],"sum_hessian":[1.5266455E2,8.0006874E1,7.265768E1,4.3647316E1,3.6359554E1,1.6946648E1,5.5711025E1,9.200462E0,3.4446854E1,7.1723275E0,9.774321E0,1.0993247E0,5.4611702E1,1.4266611E0,7.773801E0,4.7853885E0,2.9661467E1,4.532614E0,2.6397133E0,5.4795423E0,4.2947783E0,4.931718E0,2.8420832E0,3.0070522E0,1.7783365E0,2.7365675E0,2.6924898E1,1.5256495E0,3.0069644E0,1.3002609E0,1.3394525E0,2.1782377E0,2.1165407E0,3.1856446E0,1.7460731E0,1.2040964E0,1.6379867E0,2.8204994E0,2.4104399E1,1.0977368E0,1.0188037E0,2.7070856E0,2.1397314E1],"tree_param":{"num_deleted":"0","num_feature":"11","num_nodes":"43","size_leaf_vector":"0"}},{"base_weights":[1.8436047E-1,-4.3662244E-1,8.859421E-1,1.0437518E-2,-1.0009412E0,4.9207923E-1,9.99831E-1,-8.353752E-2,4.6335962E-1,3.005154E-1,8.582534E-1,2.5531298E-1,1.0109886E0,5.6703072E-2,-6.37504E-1,8.0423844E-1,-3.1656258E-2,6.7584187E-1,-1.519866E-1,-7.091282E-2,6.7998075E-1,-9.287399E-1,-4.3518567E-3,-6.573665E-1,6.5079856E-1,-1.8496651E-2,8.737617E-1,-8.4939325E-1,1.22591585E-1,9.170974E-2,-8.194599E-1,8.437077E-1,2.248792E-2,6.5470904E-1,-6.462465E-1,5.607206E-1,-4.347326E-1,-7.501835E-2,7.1123606E-1,-2.3252465E-1,-9.154062E-1,7.011726E-1,1.0058525E-1,-7.497767E-1,9.8217405E-2],"categories":[],"categories_nodes":[],"categories_segments":[],"categories_sizes":[],"default_left":[1,1,1,1,0,1,1,1,1,1,0,0,0,1,1,0,1,1,1,1,1,0,1,0,0,0,0,0,1,1,1,0,0,0,0,1,1,0,0,0,0,0,0,0,0],"id":28,"left_children":[1,3,5,7,-1,9,11,13,15,17,-1,-1,-1,19,21,-1,23,25,27,29,31,-1,33,-1,-1,-1,-1,-1,35,37,39,-1,-1,-1,-1,41,43,-1,-1,-1,-1,-1,-1,-1,-1],"loss_changes":[6.315304E1,1.9460007E1,2.557106E0,1.9117386E0,0E0,9.496975E-1,1.7184448E-1,2.9332576E0,1.3271875E0,2.2836819E0,0E0,0E0,0E0,2.488209E0,1.4001577E0,0E0,2.1820343E0,1.0060189E0,1.375373E0,3.2849808E0,5.524206E-1,0E0,1.8631186E0,0E0,0E0,0E0,0E0,0E0,1.6202366E0,2.383789E0,5.783558E-2,0E0,0E0,0E0,0E0,1.6166246E-1,5.8479613E-1,0E0,0E0,0E0,0E0,0E0,0E0,0E0,0E0],"parents":[2147483647,0,0,1,1,2,2,3,3,5,5,6,6,7,7,8,8,9,9,13,13,14,14,16,16,17,17,18,18,19,19,20,20,22,22,28,28,29,29,30,30,35,35,36,36],"right_children":[2,4,6,8,-1,10,12,14,16,18,-1,-1,-1,20,22,-1,24,26,28,30,32,-1,34,-1,-1,-1,-1,-1,36,38,40,-1,-1,-1,-1,42,44,-1,-1,-1,-1,-1,-1,-1,-1],"split_conditions":[5.475E2,5E0,9.5E5,2.32E7,-1.0009412E-1,1.85E6,5.515E2,5.8E6,8.45E6,3.15E6,8.582535E-2,2.5531298E-2,1.0109886E-1,1.455E7,2.045E7,8.042385E-2,2.755E7,5E4,8.5E5,3.85E6,1.875E7,-9.287399E-2,7.25E6,-6.573665E-2,6.507986E-2,-1.8496652E-3,8.737617E-2,-8.493932E-2,9.95E6,9E6,4.3E6,8.437077E-2,2.248792E-3,6.5470904E-2,-6.462465E-2,6.55E6,1.245E7,-7.5018345E-3,7.112361E-2,-2.3252465E-2,-9.154063E-2,7.011726E-2,1.0058525E-2,-7.497767E-2,9.821741E-3],"split_indices":[4,3,5,2,0,6,4,1,1,2,0,0,0,2,2,0,2,6,8,1,7,0,1,0,0,0,0,0,2,2,6,0,0,0,0,2,7,0,0,0,0,0,0,0,0],"split_type":[0,0,0,0,0,0,0,0,0,0,0,0,0,0,0,0,0,0,0,0,0,0,0,0,0,0,0,0,0,0,0,0,0,0,0,0,0,0,0,0,0,0,0,0,0],"sum_hessian":[1.4306819E2,7.60938E1,6.697438E1,4.300569E1,3.3088116E1,1.6215813E1,5.0758568E1,3.629131E1,6.714383E0,1.1841584E1,4.374228E0,1.1020803E0,4.9656487E1,2.9676205E1,6.6151032E0,3.6063201E0,3.1080632E0,6.202977E0,5.638607E0,2.5368284E1,4.3079214E0,4.2111955E0,2.4039078E0,1.6406194E0,1.4674438E0,1.5770271E0,4.6259503E0,1.0014801E0,4.637127E0,2.1561508E1,3.806775E0,3.2222953E0,1.0856259E0,1.1762439E0,1.2276638E0,2.5927753E0,2.0443516E0,1.7681847E1,3.8796616E0,1.0158672E0,2.7909079E0,1.5850991E0,1.0076764E0,1.0291468E0,1.0152049E0],"tree_param":{"num_deleted":"0","num_feature":"11","num_nodes":"45","size_leaf_vector":"0"}},{"base_weights":[1.7934443E-1,-4.113864E-1,8.793658E-1,2.568815E-2,-9.9595326E-1,4.695009E-1,1.0062687E0,-2.9710501E-2,7.375086E-1,1.5675719E-1,6.71149E-1,3.7122893E-1,-1.5453157E-1,6.190986E-1,-3.1112093E-1,8.7216216E-1,3.043727E-1,1.0608387E0,-1.0031295E-1,-9.025463E-1,-3.8130786E-2,8.041869E-2,7.625488E-1,1.8085034E-1,-8.409391E-1,6.9202197E-1,-1.6635072E-1,-4.201822E-1,8.106868E-1,-1.0569202E0,-2.2857194E-1,-6.25645E-1,6.7124166E-2,-3.620897E-1,6.057608E-1,-3.506484E-1,9.903056E-2,3.172713E-1,-9.5115954E-1,2.7884984E-1,-1.0280422E0,1.0694858E0,-1.06771685E-1],"categories":[],"categories_nodes":[],"categories_segments":[],"categories_sizes":[],"default_left":[1,1,1,1,0,1,0,1,0,1,1,1,1,1,1,0,1,0,1,1,1,0,0,1,0,0,1,1,0,0,0,1,1,0,0,0,0,0,0,0,0,0,0],"id":29,"left_children":[1,3,5,7,-1,9,-1,11,-1,13,15,17,19,21,23,-1,25,-1,27,29,31,-1,-1,33,-1,-1,35,37,-1,-1,-1,39,41,-1,-1,-1,-1,-1,-1,-1,-1,-1,-1],"loss_changes":[5.6089622E1,1.8873314E1,2.7521057E0,1.7248194E0,0E0,9.3734264E-1,0E0,2.1105886E0,0E0,1.8767325E0,4.5309782E-1,3.3693194E0,2.7511823E0,2.6711297E-1,1.3341652E0,0E0,1.0250342E0,0E0,2.3434067E0,2.0206022E-1,1.818551E0,0E0,0E0,9.517026E-1,0E0,0E0,1.8429674E-1,2.5515296E0,0E0,0E0,0E0,1.9106015E0,4.5184026E0,0E0,0E0,0E0,0E0,0E0,0E0,0E0,0E0,0E0,0E0],"parents":[2147483647,0,0,1,1,2,2,3,3,5,5,7,7,9,9,10,10,11,11,12,12,13,13,14,14,16,16,18,18,19,19,20,20,23,23,26,26,27,27,31,31,32,32],"right_children":[2,4,6,8,-1,10,-1,12,-1,14,16,18,20,22,24,-1,26,-1,28,30,32,-1,-1,34,-1,-1,36,38,-1,-1,-1,40,42,-1,-1,-1,-1,-1,-1,-1,-1,-1,-1],"split_conditions":[5.495E2,5E0,9.5E5,2.75E7,-9.959533E-2,4.5E5,1.0062688E-1,4.25E6,7.375086E-2,7.46E2,1.3E1,1.5E0,1.2E6,6.16E2,3.4E6,8.721622E-2,9.75E6,1.0608387E-1,3.45E6,4.52E2,7.15E6,8.041869E-3,7.625488E-2,3.5E5,-8.409391E-2,6.92022E-2,7.325E2,1.15E6,8.106869E-2,-1.0569202E-1,-2.2857195E-2,1.85E6,3.15E6,-3.620897E-2,6.057608E-2,-3.5064843E-2,9.903057E-3,3.172713E-2,-9.511595E-2,2.7884984E-2,-1.0280422E-1,1.0694858E-1,-1.0677169E-2],"split_indices":[4,3,5,2,0,6,0,7,0,4,3,0,5,4,2,0,2,0,2,4,2,0,0,8,0,0,4,7,0,0,0,1,1,0,0,0,0,0,0,0,0,0,0],"split_type":[0,0,0,0,0,0,0,0,0,0,0,0,0,0,0,0,0,0,0,0,0,0,0,0,0,0,0,0,0,0,0,0,0,0,0,0,0,0,0,0,0,0,0],"sum_hessian":[1.3376324E2,7.2768234E1,6.0995007E1,4.2183857E1,3.0584377E1,1.5531575E1,4.5463432E1,4.002695E1,2.1569052E0,6.785329E0,8.746246E0,9.034149E0,3.0992804E1,3.2502935E0,3.5350356E0,4.7597394E0,3.9865072E0,3.1612434E0,5.8729057E0,3.263987E0,2.7728817E1,1.0117192E0,2.2385743E0,2.1745124E0,1.360523E0,1.928351E0,2.0581563E0,4.745455E0,1.127451E0,2.1933982E0,1.0705887E0,3.4617667E0,2.426705E1,1.0195726E0,1.1549399E0,1.025018E0,1.0331382E0,2.1549735E0,2.5904813E0,1.1604267E0,2.3013399E0,2.826209E0,2.1440842E1],"tree_param":{"num_deleted":"0","num_feature":"11","num_nodes":"43","size_leaf_vector":"0"}},{"base_weights":[1.7464139E-1,-3.9752766E-1,8.5796696E-1,1.02957925E-2,-9.894322E-1,4.4983098E-1,9.891004E-1,-8.470095E-2,4.1273582E-1,2.609365E-1,8.3042914E-1,2.5157946E-1,1.0012251E0,5.42342E-2,-7.317505E-1,8.6054516E-1,-2.2829458E-2,6.363409E-1,-1.6110872E-1,-4.5839604E-2,8.17437E-1,-9.0340596E-1,-6.666659E-2,-4.8316115E-1,6.501627E-1,-2.0577332E-2,8.549561E-1,-7.8976566E-1,1.0258035E-1,2.946066E-1,-3.0021524E-1,-7.039606E-1,-6.916179E-2,5.347854E-1,-4.18862E-1,-6.424735E-1,4.7597468E-1,-1.0249621E0,-4.9872976E-2,6.6874117E-1,1.0819943E-1,-7.390682E-1,1.056733E-1],"categories":[],"categories_nodes":[],"categories_segments":[],"categories_sizes":[],"default_left":[1,1,1,1,0,1,1,1,1,1,0,0,0,1,1,0,1,1,1,1,0,0,0,1,0,0,0,0,1,1,1,0,0,1,1,0,0,0,0,0,0,0,0],"id":30,"left_children":[1,3,5,7,-1,9,11,13,15,17,-1,-1,-1,19,21,-1,23,25,27,29,-1,-1,-1,31,-1,-1,-1,-1,33,35,37,-1,-1,39,41,-1,-1,-1,-1,-1,-1,-1,-1],"loss_changes":[4.9839497E1,1.6808361E1,2.6599464E0,1.647931E0,0E0,9.293628E-1,1.3327026E-1,3.1828032E0,1.6244293E0,2.021486E0,0E0,0E0,0E0,2.3069167E0,6.532252E-1,0E0,1.9080359E0,9.671755E-1,1.1584659E0,2.4454062E0,0E0,0E0,0E0,2.8302968E-1,0E0,0E0,0E0,0E0,1.455437E0,2.369709E0,2.8649936E0,0E0,0E0,1.2346834E-1,5.8821964E-1,0E0,0E0,0E0,0E0,0E0,0E0,0E0,0E0],"parents":[2147483647,0,0,1,1,2,2,3,3,5,5,6,6,7,7,8,8,9,9,13,13,14,14,16,16,17,17,18,18,19,19,23,23,28,28,29,29,30,30,33,33,34,34],"right_children":[2,4,6,8,-1,10,12,14,16,18,-1,-1,-1,20,22,-1,24,26,28,30,-1,-1,-1,32,-1,-1,-1,-1,34,36,38,-1,-1,40,42,-1,-1,-1,-1,-1,-1,-1,-1],"split_conditions":[5.475E2,5E0,9.5E5,2.185E7,-9.8943226E-2,1.85E6,5.515E2,5.8E6,8.15E6,3.15E6,8.304291E-2,2.5157947E-2,1.0012251E-1,1.605E7,2.045E7,8.605452E-2,2.755E7,7.5E5,8.5E5,5.7E6,8.17437E-2,-9.03406E-2,-6.666659E-3,2.565E7,6.501627E-2,-2.0577332E-3,8.549561E-2,-7.8976564E-2,9.95E6,9.5E5,7.15E6,-7.039606E-2,-6.916179E-3,6.3E6,4.05E6,-6.4247355E-2,4.7597468E-2,-1.0249621E-1,-4.9872976E-3,6.687412E-2,1.0819944E-2,-7.3906824E-2,1.056733E-2],"split_indices":[4,3,5,2,0,6,4,1,1,2,0,0,0,2,2,0,2,7,8,7,0,0,0,7,0,0,0,0,2,2,2,0,0,2,8,0,0,0,0,0,0,0,0],"split_type":[0,0,0,0,0,0,0,0,0,0,0,0,0,0,0,0,0,0,0,0,0,0,0,0,0,0,0,0,0,0,0,0,0,0,0,0,0,0,0,0,0,0,0],"sum_hessian":[1.25601654E2,6.85886E1,5.7013054E1,4.119072E1,2.7397884E1,1.4941105E1,4.207195E1,3.3963177E1,7.227542E0,1.1111806E1,3.829299E0,1.0322391E0,4.103971E1,2.8713884E1,5.249293E0,3.082595E0,4.1449466E0,5.6121273E0,5.4996786E0,2.6216255E1,2.497629E0,3.887588E0,1.3617047E0,2.628858E0,1.5160886E0,1.6275038E0,3.9846234E0,1.0356168E0,4.4640617E0,1.1143749E1,1.5072506E1,1.2576969E0,1.3711612E0,2.426901E0,2.0371606E0,1.394803E0,9.748946E0,3.0752733E0,1.1997232E1,1.4149287E0,1.0119724E0,1.0109954E0,1.0261652E0],"tree_param":{"num_deleted":"0","num_feature":"11","num_nodes":"43","size_leaf_vector":"0"}},{"base_weights":[1.6880205E-1,-3.8104355E-1,8.424443E-1,7.846012E-3,-9.836871E-1,4.2868415E-1,9.825839E-1,-6.250871E-2,5.1761043E-1,2.4390617E-1,8.141963E-1,2.3842937E-1,9.964705E-1,3.0817317E-2,-7.199833E-1,7.277077E-1,-1.5546031E-1,6.1379814E-1,-1.5445009E-1,-8.162327E-2,6.0232323E-1,-8.046729E-1,-2.3549238E-1,-6.405618E-2,8.3483094E-1,-7.328193E-1,9.662229E-2,4.861002E-2,-8.55484E-1,7.6084125E-1,-5.6572568E-2,5.1659584E-1,-3.947209E-1,-5.650782E-2,6.0134166E-1,6.497534E-1,1.03167824E-1,-6.9149E-1,1.0072147E-1],"categories":[],"categories_nodes":[],"categories_segments":[],"categories_sizes":[],"default_left":[1,1,1,1,0,1,1,1,1,1,0,0,0,1,1,0,0,1,1,1,1,0,0,0,0,0,1,1,0,0,0,1,1,0,0,0,0,0,0],"id":31,"left_children":[1,3,5,7,-1,9,11,13,15,17,-1,-1,-1,19,21,-1,-1,23,25,27,29,-1,-1,-1,-1,-1,31,33,-1,-1,-1,35,37,-1,-1,-1,-1,-1,-1],"loss_changes":[4.4326424E1,1.54994545E1,2.6927376E0,1.5088209E0,0E0,8.9565635E-1,1.689682E-1,2.2966378E0,8.34388E-1,1.8352504E0,0E0,0E0,0E0,2.1966832E0,1.2452602E-3,0E0,0E0,1.0012498E0,1.0126586E0,2.944681E0,6.2934613E-1,0E0,0E0,0E0,0E0,0E0,1.3194888E0,1.5215306E0,0E0,0E0,0E0,1.1727357E-1,5.1931274E-1,0E0,0E0,0E0,0E0,0E0,0E0],"parents":[2147483647,0,0,1,1,2,2,3,3,5,5,6,6,7,7,8,8,9,9,13,13,14,14,17,17,18,18,19,19,20,20,26,26,27,27,31,31,32,32],"right_children":[2,4,6,8,-1,10,12,14,16,18,-1,-1,-1,20,22,-1,-1,24,26,28,30,-1,-1,-1,-1,-1,32,34,-1,-1,-1,36,38,-1,-1,-1,-1,-1,-1],"split_conditions":[5.475E2,5E0,9.5E5,2.51E7,-9.836871E-2,1.85E6,5.515E2,7.25E6,9.55E6,3.15E6,8.141963E-2,2.3842936E-2,9.964705E-2,1.675E7,2.33E7,7.277077E-2,-1.5546031E-2,5E4,8.5E5,5.05E6,4.5E0,-8.046729E-2,-2.3549238E-2,-6.405618E-3,8.348309E-2,-7.328194E-2,9.95E6,1.265E7,-8.55484E-2,7.608413E-2,-5.657257E-3,6.3E6,4.05E6,-5.650782E-3,6.013417E-2,6.497534E-2,1.0316783E-2,-6.9149E-2,1.00721475E-2],"split_indices":[4,3,5,2,0,6,4,1,1,2,0,0,0,2,2,0,0,6,8,1,0,0,0,0,0,0,2,2,0,0,0,2,8,0,0,0,0,0,0],"split_type":[0,0,0,0,0,0,0,0,0,0,0,0,0,0,0,0,0,0,0,0,0,0,0,0,0,0,0,0,0,0,0,0,0,0,0,0,0,0,0],"sum_hessian":[1.1780536E2,6.51018E1,5.2703556E1,4.016808E1,2.4933725E1,1.4361222E1,3.834233E1,3.606761E1,4.100465E0,1.0811767E1,3.549456E0,1.0352507E0,3.7307083E1,3.2418987E1,3.648625E0,3.0631387E0,1.0373263E0,5.3257437E0,5.486023E0,2.7805574E1,4.613413E0,2.5432065E0,1.1054186E0,1.4842138E0,3.8415298E0,1.079813E0,4.40621E0,2.4602411E1,3.2031634E0,3.5940337E0,1.019379E0,2.347931E0,2.058279E0,2.1425503E1,3.17691E0,1.3435682E0,1.0043627E0,1.0397617E0,1.0185175E0],"tree_param":{"num_deleted":"0","num_feature":"11","num_nodes":"39","size_leaf_vector":"0"}},{"base_weights":[1.6309191E-1,-3.553065E-1,8.3591443E-1,2.2841373E-2,-9.7914064E-1,4.0864778E-1,9.920628E-1,-3.355952E-2,6.024114E-1,2.281631E-1,7.97931E-1,3.4004924E-1,-1.559683E-1,5.9208363E-1,-1.4740181E-1,-1.2742704E-1,9.308918E-1,-9.5566624E-1,-4.20618E-2,-4.9170416E-2,8.2621306E-1,-5.014961E-1,2.0636098E-1,5.193643E-1,-8.283816E-1,-9.0555453E-1,4.1936524E-2,-8.548974E-1,1.3135462E-1,6.471722E-1,-2.6000354E-1,-3.5851526E-1,1.0104461E0,8.0148095E-1,-1.4364202E-1],"categories":[],"categories_nodes":[],"categories_segments":[],"categories_sizes":[],"default_left":[1,1,1,1,0,1,0,1,0,1,0,1,1,1,1,1,0,0,1,0,0,1,1,1,0,0,1,0,0,0,0,0,0,0,0],"id":32,"left_children":[1,3,5,7,-1,9,-1,11,-1,13,-1,15,17,19,21,23,-1,-1,25,-1,-1,27,29,31,-1,-1,33,-1,-1,-1,-1,-1,-1,-1,-1],"loss_changes":[3.9337395E1,1.5101726E1,2.8643074E0,1.3530875E0,0E0,8.5900545E-1,0E0,1.7957519E0,0E0,1.6623455E0,0E0,2.8029E0,2.6367671E0,9.492712E-1,9.1420776E-1,3.2888477E0,0E0,0E0,1.9796474E0,0E0,0E0,9.008897E-1,9.794786E-1,2.0409884E0,0E0,0E0,3.6886752E0,0E0,0E0,0E0,0E0,0E0,0E0,0E0,0E0],"parents":[2147483647,0,0,1,1,2,2,3,3,5,5,7,7,9,9,11,11,12,12,13,13,14,14,15,15,18,18,21,21,22,22,23,23,26,26],"right_children":[2,4,6,8,-1,10,-1,12,-1,14,-1,16,18,20,22,24,-1,-1,26,-1,-1,28,30,32,-1,-1,34,-1,-1,-1,-1,-1,-1,-1,-1],"split_conditions":[5.495E2,5E0,9.5E5,2.625E7,-9.791406E-2,1.85E6,9.920628E-2,1.55E6,6.024114E-2,3.15E6,7.97931E-2,2.25E6,1.2E6,7.5E5,1.8E6,1.15E6,9.3089186E-2,-9.556662E-2,1.55E6,-4.917042E-3,8.2621306E-2,1.1E1,1.3E1,5E-1,-8.283816E-2,-9.055545E-2,3E6,-8.548974E-2,1.3135462E-2,6.4717226E-2,-2.6000354E-2,-3.5851527E-2,1.0104461E-1,8.014809E-2,-1.43642025E-2],"split_indices":[4,3,5,2,0,6,0,1,0,2,0,2,5,7,8,7,0,0,8,0,0,3,3,10,0,0,1,0,0,0,0,0,0,0,0],"split_type":[0,0,0,0,0,0,0,0,0,0,0,0,0,0,0,0,0,0,0,0,0,0,0,0,0,0,0,0,0,0,0,0,0,0,0],"sum_hessian":[1.10930885E2,6.292226E1,4.8008625E1,3.977521E1,2.3147049E1,1.3817377E1,3.419125E1,3.7106304E1,2.6689067E0,1.0524144E1,3.2932327E0,8.718434E0,2.8387869E1,5.052135E0,5.4720087E0,5.3052425E0,3.4131923E0,2.617985E0,2.5769884E1,1.5625294E0,3.4896057E0,2.5260181E0,2.9459903E0,2.893961E0,2.4112813E0,1.4175023E0,2.435238E1,1.3957342E0,1.1302841E0,1.3151782E0,1.6308123E0,1.1349758E0,1.7589853E0,4.13002E0,2.022236E1],"tree_param":{"num_deleted":"0","num_feature":"11","num_nodes":"35","size_leaf_vector":"0"}},{"base_weights":[1.5752733E-1,-3.4354964E-1,8.119175E-1,5.9138224E-3,-9.719612E-1,3.903155E-1,9.7149456E-1,-7.738942E-2,3.7357977E-1,2.1497382E-1,7.816346E-1,2.7766302E-1,9.868584E-1,3.8121793E-2,-7.4873286E-1,7.3071855E-1,-1.515417E-1,5.7023084E-1,-1.3706422E-1,-6.564343E-2,8.148523E-1,-8.3924055E-1,-2.0544215E-1,8.1643546E-1,2.21917E-1,-6.5481484E-1,5.6877226E-1,-8.775367E-2,8.068603E-1,-6.415575E-1,9.1536745E-2,3.2129896E-1,-2.624326E-1,5.021073E-1,-3.776875E-1,-1.1878771E-1,8.848724E-1,-1.0195879E0,-8.999012E-2,6.254921E-1,1.1636932E-1,-6.515461E-1,9.242319E-2],"categories":[],"categories_nodes":[],"categories_segments":[],"categories_sizes":[],"default_left":[1,1,1,1,0,1,1,1,1,1,0,0,0,1,1,1,1,1,1,1,0,0,0,0,0,0,0,0,0,0,1,1,1,1,1,0,0,0,0,0,0,0,0],"id":33,"left_children":[1,3,5,7,-1,9,11,13,15,17,-1,-1,-1,19,21,23,25,27,29,31,-1,-1,-1,-1,-1,-1,-1,-1,-1,-1,33,35,37,39,41,-1,-1,-1,-1,-1,-1,-1,-1],"loss_changes":[3.4947678E1,1.3309944E1,2.725542E0,1.2517451E0,0E0,8.160808E-1,7.56855E-2,2.6170053E0,1.5260509E0,1.4893738E0,0E0,0E0,0E0,2.425514E0,7.0913315E-2,2.221036E-2,1.7801342E0,9.7542655E-1,8.053418E-1,2.1317012E0,0E0,0E0,0E0,0E0,0E0,0E0,0E0,0E0,0E0,0E0,1.2165114E0,2.4647813E0,2.3072066E0,8.294463E-2,4.5393723E-1,0E0,0E0,0E0,0E0,0E0,0E0,0E0,0E0],"parents":[2147483647,0,0,1,1,2,2,3,3,5,5,6,6,7,7,8,8,9,9,13,13,14,14,15,15,16,16,17,17,18,18,19,19,30,30,31,31,32,32,33,33,34,34],"right_children":[2,4,6,8,-1,10,12,14,16,18,-1,-1,-1,20,22,24,26,28,30,32,-1,-1,-1,-1,-1,-1,-1,-1,-1,-1,34,36,38,40,42,-1,-1,-1,-1,-1,-1,-1,-1],"split_conditions":[5.475E2,5E0,9.5E5,2.185E7,-9.7196124E-2,1.85E6,5.525E2,6.15E6,8.45E6,3.15E6,7.816347E-2,2.7766302E-2,9.8685846E-2,1.605E7,2.045E7,8.05E6,2.755E7,5E4,8.5E5,1.55E6,8.1485234E-2,-8.3924055E-2,-2.0544214E-2,8.1643544E-2,2.2191701E-2,-6.5481484E-2,5.6877226E-2,-8.775367E-3,8.068603E-2,-6.415575E-2,9.95E6,2.25E6,1.2E6,5.9E6,4.05E6,-1.1878772E-2,8.848724E-2,-1.0195879E-1,-8.9990115E-3,6.254921E-2,1.1636932E-2,-6.515461E-2,9.2423195E-3],"split_indices":[4,3,5,2,0,6,4,1,1,2,0,0,0,2,2,1,2,6,8,1,0,0,0,0,0,0,0,0,0,0,2,2,5,2,8,0,0,0,0,0,0,0,0],"split_type":[0,0,0,0,0,0,0,0,0,0,0,0,0,0,0,0,0,0,0,0,0,0,0,0,0,0,0,0,0,0,0,0,0,0,0,0,0,0,0,0,0,0,0],"sum_hessian":[1.0472967E2,5.958188E1,4.5147785E1,3.8925667E1,2.0656212E1,1.3342608E1,3.1805178E1,3.237897E1,6.5466957E0,1.0283949E1,3.0586593E0,1.102201E0,3.0702976E1,2.843045E1,3.9485216E0,3.66356E0,2.8831358E0,4.810084E0,5.473865E0,2.588756E1,2.5428913E0,2.9177186E0,1.0308031E0,2.617902E0,1.0456578E0,1.7508048E0,1.132331E0,1.4387028E0,3.371381E0,1.1436105E0,4.3302546E0,8.513985E0,1.7373575E1,2.272095E0,2.0581596E0,5.2239213E0,3.2900636E0,2.3115344E0,1.506204E1,1.2505417E0,1.0215533E0,1.0566665E0,1.0014931E0],"tree_param":{"num_deleted":"0","num_feature":"11","num_nodes":"43","size_leaf_vector":"0"}},{"base_weights":[1.5271313E-1,-3.1913847E-1,8.049529E-1,2.2129873E-2,-9.674954E-1,3.721318E-1,9.82584E-1,-2.3181895E-2,6.595105E-1,8.4992126E-2,5.812685E-1,3.8946692E-2,-7.0142365E-1,5.6203437E-1,-3.5864028E-1,8.102969E-1,2.128138E-1,-5.3938154E-2,5.830153E-1,1.0651504E-1,6.9712204E-1,-6.7155766E-1,2.3183987E-1,6.2242997E-1,-2.1349318E-1,9.400073E-2,-6.342287E-1,7.663954E-1,-5.0563674E-2,-3.5230096E-3,8.6536026E-1,-8.951223E-1,-1.806366E-1],"categories":[],"categories_nodes":[],"categories_segments":[],"categories_sizes":[],"default_left":[1,1,1,1,0,1,0,1,0,1,1,1,0,1,1,0,1,1,1,0,0,0,0,0,0,1,1,0,0,0,0,0,0],"id":34,"left_children":[1,3,5,7,-1,9,-1,11,-1,13,15,17,-1,19,21,-1,23,25,27,-1,-1,-1,-1,-1,-1,29,31,-1,-1,-1,-1,-1,-1],"loss_changes":[3.0962711E1,1.2989109E1,2.8760529E0,1.1524584E0,0E0,7.840338E-1,0E0,1.6170746E0,0E0,1.6872025E0,4.9073505E-1,1.825905E0,0E0,1.5786397E-1,9.40564E-1,0E0,8.9574534E-1,2.7420018E0,6.502143E-1,0E0,0E0,0E0,0E0,0E0,0E0,1.9415631E0,6.047497E-1,0E0,0E0,0E0,0E0,0E0,0E0],"parents":[2147483647,0,0,1,1,2,2,3,3,5,5,7,7,9,9,10,10,11,11,13,13,14,14,16,16,17,17,18,18,25,25,26,26],"right_children":[2,4,6,8,-1,10,-1,12,-1,14,16,18,-1,20,22,-1,24,26,28,-1,-1,-1,-1,-1,-1,30,32,-1,-1,-1,-1,-1,-1],"split_conditions":[5.495E2,5E0,9.5E5,2.75E7,-9.674954E-2,4.5E5,9.82584E-2,8.45E6,6.595105E-2,7.46E2,1.3E1,2.015E7,-7.0142366E-2,6.245E2,2.5E0,8.102969E-2,9.75E6,5.15E6,8.05E6,1.0651505E-2,6.971221E-2,-6.715577E-2,2.3183987E-2,6.2242996E-2,-2.1349318E-2,1.45E7,1.625E7,7.663954E-2,-5.0563677E-3,-3.5230097E-4,8.653603E-2,-8.951223E-2,-1.806366E-2],"split_indices":[4,3,5,2,0,6,0,1,0,4,3,2,0,4,0,0,2,1,1,0,0,0,0,0,0,2,2,0,0,0,0,0,0],"split_type":[0,0,0,0,0,0,0,0,0,0,0,0,0,0,0,0,0,0,0,0,0,0,0,0,0,0,0,0,0,0,0,0,0],"sum_hessian":[9.877184E1,5.7607437E1,4.1164402E1,3.8374535E1,1.9232904E1,1.28787155E1,2.8285686E1,3.6727203E1,1.6473294E0,6.019914E0,6.858802E0,3.45087E1,2.2185037E0,2.7721267E0,3.2477872E0,3.4901667E0,3.3686352E0,3.0245901E1,4.2627997E0,1.0431349E0,1.7289919E0,2.0330765E0,1.2147107E0,1.4833298E0,1.8853053E0,2.4769255E1,5.4766464E0,3.1433692E0,1.1194305E0,2.287285E1,1.8964041E0,2.8588865E0,2.61776E0],"tree_param":{"num_deleted":"0","num_feature":"11","num_nodes":"33","size_leaf_vector":"0"}},{"base_weights":[1.4797854E-1,-3.0907446E-1,7.8042644E-1,5.717431E-3,-9.596328E-1,3.5711595E-1,9.6061975E-1,-5.470753E-2,4.6886903E-1,1.8772997E-1,7.5438374E-1,2.729423E-1,9.7710985E-1,2.9709104E-2,-6.813817E-1,6.64351E-1,-9.30459E-2,5.427309E-1,-1.4914677E-1,-5.229481E-2,6.8109477E-1,-7.007046E-2,7.9135305E-1,-4.7935423E-1,1.924518E-1,6.1739266E-2,-6.4035237E-1,-7.839471E-1,1.2029172E-1,6.2322664E-1,-2.4044383E-1,-1.0659475E-1,4.6201962E-1,-8.4886587E-1,-8.7189764E-2],"categories":[],"categories_nodes":[],"categories_segments":[],"categories_sizes":[],"default_left":[1,1,1,1,0,1,1,1,1,1,0,0,0,1,0,0,0,1,1,1,0,0,0,1,1,1,1,0,0,0,0,0,0,0,0],"id":35,"left_children":[1,3,5,7,-1,9,11,13,15,17,-1,-1,-1,19,-1,-1,-1,21,23,25,-1,-1,-1,27,29,31,33,-1,-1,-1,-1,-1,-1,-1,-1],"loss_changes":[2.7556574E1,1.1385876E1,2.7023811E0,1.1015358E0,0E0,7.676685E-1,4.416275E-2,1.8666506E0,5.6064117E-1,1.3730989E0,0E0,0E0,0E0,1.7298386E0,0E0,0E0,0E0,8.898134E-1,8.0607533E-1,1.9909127E0,0E0,0E0,0E0,7.343505E-1,8.629587E-1,1.7529917E0,4.8127878E-1,0E0,0E0,0E0,0E0,0E0,0E0,0E0,0E0],"parents":[2147483647,0,0,1,1,2,2,3,3,5,5,6,6,7,7,8,8,9,9,13,13,17,17,18,18,19,19,23,23,24,24,25,25,26,26],"right_children":[2,4,6,8,-1,10,12,14,16,18,-1,-1,-1,20,-1,-1,-1,22,24,26,-1,-1,-1,28,30,32,34,-1,-1,-1,-1,-1,-1,-1,-1],"split_conditions":[5.475E2,5E0,9.5E5,2.51E7,-9.5963284E-2,1.85E6,5.525E2,7.25E6,9.4E6,3.15E6,7.543837E-2,2.7294232E-2,9.771099E-2,1.84E7,-6.8138175E-2,6.64351E-2,-9.30459E-3,7.5E5,1.8E6,5.15E6,6.8109475E-2,-7.007046E-3,7.9135306E-2,2.5E0,1.2E7,1.03E7,1.605E7,-7.839471E-2,1.2029172E-2,6.2322665E-2,-2.4044383E-2,-1.0659475E-2,4.6201963E-2,-8.488659E-2,-8.718977E-3],"split_indices":[4,3,5,2,0,6,4,1,1,2,0,0,0,2,0,0,0,7,8,1,0,0,0,0,2,2,2,0,0,0,0,0,0,0,0],"split_type":[0,0,0,0,0,0,0,0,0,0,0,0,0,0,0,0,0,0,0,0,0,0,0,0,0,0,0,0,0,0,0,0,0,0,0],"sum_hessian":[9.349648E1,5.4570885E1,3.89256E1,3.74438E1,1.712708E1,1.2512666E1,2.6412931E1,3.390259E1,3.5412135E0,9.804711E0,2.7079542E0,1.029561E0,2.5383371E1,3.0717375E1,3.1852155E0,2.491989E0,1.0492246E0,4.476405E0,5.3283057E0,2.8099592E1,2.617782E0,1.4992453E0,2.97716E0,2.5042734E0,2.8240325E0,2.4285286E1,3.8143067E0,1.4568897E0,1.0473837E0,1.195109E0,1.6289237E0,1.7612303E1,6.6729827E0,2.3818896E0,1.432417E0],"tree_param":{"num_deleted":"0","num_feature":"11","num_nodes":"35","size_leaf_vector":"0"}},{"base_weights":[1.4255153E-1,-2.9233757E-1,7.6285565E-1,5.159059E-3,-9.531459E-1,3.4110963E-1,9.5311445E-1,3.123366E-1,-9.324945E-2,1.772674E-1,7.380474E-1,2.5901824E-1,9.720464E-1,9.757237E-1,-1.17398076E-1,-7.659751E-1,4.8455436E-2,5.2193224E-1,-1.3780868E-1,-3.9549813E-1,7.105478E-1,-1.4091663E-1,-9.8390484E-1,7.028943E-1,-7.362811E-2,-9.782429E-2,7.718456E-1,-4.4386464E-1,1.8553138E-1,2.8736374E-1,-8.904475E-1,5.1641066E-2,9.1353893E-1,-9.640486E-1,7.850633E-2,-7.4991083E-1,1.2407713E-1,6.0546863E-1,-2.2387105E-1,8.112451E-1,-4.8836038E-2],"categories":[],"categories_nodes":[],"categories_segments":[],"categories_sizes":[],"default_left":[1,1,1,1,0,1,1,1,1,1,0,0,0,0,1,1,1,1,1,1,0,0,0,1,1,0,0,1,1,0,0,0,0,0,1,0,0,0,0,0,0],"id":36,"left_children":[1,3,5,7,-1,9,11,13,15,17,-1,-1,-1,-1,19,21,23,25,27,29,-1,-1,-1,31,33,-1,-1,35,37,-1,-1,-1,-1,-1,39,-1,-1,-1,-1,-1,-1],"loss_changes":[2.4427143E1,1.0516035E1,2.6643257E0,1.1737044E0,0E0,7.236905E-1,7.826805E-2,2.7991238E0,2.8442404E0,1.2248415E0,0E0,0E0,0E0,0E0,1.8024038E0,5.673778E-1,2.0702367E0,8.931608E-1,7.095087E-1,2.1447086E0,0E0,0E0,0E0,5.107136E-1,3.0825794E0,0E0,0E0,7.10188E-1,7.86611E-1,0E0,0E0,0E0,0E0,0E0,1.8948438E0,0E0,0E0,0E0,0E0,0E0,0E0],"parents":[2147483647,0,0,1,1,2,2,3,3,5,5,6,6,7,7,8,8,9,9,14,14,15,15,16,16,17,17,18,18,19,19,23,23,24,24,27,27,28,28,34,34],"right_children":[2,4,6,8,-1,10,12,14,16,18,-1,-1,-1,-1,20,22,24,26,28,30,-1,-1,-1,32,34,-1,-1,36,38,-1,-1,-1,-1,-1,40,-1,-1,-1,-1,-1,-1],"split_conditions":[5.475E2,5E0,9.5E5,4.25E6,-9.531459E-2,1.85E6,5.525E2,1.5E0,7.15E6,3.15E6,7.380474E-2,2.5901824E-2,9.720464E-2,9.757237E-2,3.45E6,1.85E6,3.15E6,5E4,1.8E6,1.15E6,7.105478E-2,-1.4091663E-2,-9.839048E-2,1.75E6,1.03E7,-9.782429E-3,7.718456E-2,1.1E1,1.2E7,2.8736373E-2,-8.904475E-2,5.164107E-3,9.135389E-2,-9.6404865E-2,3.75E6,-7.4991085E-2,1.2407713E-2,6.0546864E-2,-2.2387106E-2,8.112451E-2,-4.8836037E-3],"split_indices":[4,3,5,7,0,6,4,0,2,2,0,0,0,0,2,1,1,6,8,7,0,0,0,5,2,0,0,3,2,0,0,0,0,0,1,0,0,0,0,0,0],"split_type":[0,0,0,0,0,0,0,0,0,0,0,0,0,0,0,0,0,0,0,0,0,0,0,0,0,0,0,0,0,0,0,0,0,0,0,0,0,0,0,0,0],"sum_hessian":[8.872352E1,5.2467674E1,3.6255848E1,3.686376E1,1.5603912E1,1.2139386E1,2.4116463E1,8.416906E0,2.8446856E1,9.616581E0,2.5228052E0,1.0301436E0,2.3086319E1,2.8094282E0,5.6074777E0,4.1830306E0,2.4263824E1,4.2791014E0,5.337479E0,4.58854E0,1.0189378E0,1.5070828E0,2.675948E0,3.0667539E0,2.1197071E1,1.4045483E0,2.8745532E0,2.5505345E0,2.7869449E0,2.1044805E0,2.4840593E0,1.0538152E0,2.0129387E0,2.314401E0,1.888267E1,1.4492031E0,1.1013315E0,1.1393591E0,1.6475856E0,2.00058E0,1.688209E1],"tree_param":{"num_deleted":"0","num_feature":"11","num_nodes":"41","size_leaf_vector":"0"}},{"base_weights":[1.382694E-1,-2.7532563E-1,7.451027E-1,6.7313365E-3,-9.4639E-1,2.1196903E-1,8.966486E-1,3.0338848E-1,-8.748197E-2,3.8874626E-2,6.303836E-1,3.9495137E-1,9.535158E-1,-5.950286E-1,5.315577E-1,-8.9229625E-1,2.6445642E-2,3.288916E-1,-6.541731E-1,6.881838E-1,-1.4509787E-1,2.9002985E-1,9.7174925E-1,8.1399524E-1,-2.1690102E-2,-8.361384E-1,1.0525372E-1,-7.918426E-2,7.394341E-1,1.0041577E0,2.0917526E-1,-4.382439E-1,3.4434313E-1,6.74389E-1,-2.5157532E-2,-4.606248E-1,3.3303097E-1,-2.4355403E-3,9.6009696E-1,-9.224185E-1,1.2230528E-1],"categories":[],"categories_nodes":[],"categories_segments":[],"categories_sizes":[],"default_left":[1,1,1,1,0,1,1,1,1,1,0,1,1,0,1,0,1,1,0,0,0,0,0,1,1,0,1,1,0,0,0,0,0,1,1,0,0,0,0,0,0],"id":37,"left_children":[1,3,5,7,-1,9,11,13,15,17,-1,19,21,-1,23,-1,25,27,-1,-1,-1,-1,-1,29,31,-1,33,35,-1,-1,-1,-1,-1,37,39,-1,-1,-1,-1,-1,-1],"loss_changes":[2.159534E1,9.737656E0,2.6226292E0,1.0659938E0,0E0,6.2841105E-1,3.8795662E-1,2.1997766E0,2.6828861E0,1.711098E0,0E0,8.022397E-1,7.972717E-4,0E0,1.2451262E0,0E0,1.8811194E0,1.0490763E0,0E0,0E0,0E0,0E0,0E0,3.9107203E-1,7.042212E-1,0E0,1.8767834E0,7.616519E-1,0E0,0E0,0E0,0E0,0E0,9.126022E-1,2.9377375E0,0E0,0E0,0E0,0E0,0E0,0E0],"parents":[2147483647,0,0,1,1,2,2,3,3,5,5,6,6,7,7,8,8,9,9,11,11,12,12,14,14,16,16,17,17,23,23,24,24,26,26,27,27,33,33,34,34],"right_children":[2,4,6,8,-1,10,12,14,16,18,-1,20,22,-1,24,-1,26,28,-1,-1,-1,-1,-1,30,32,-1,34,36,-1,-1,-1,-1,-1,38,40,-1,-1,-1,-1,-1,-1],"split_conditions":[5.475E2,5E0,5.5E5,1.55E6,-9.4638996E-2,1.9E6,3.75E6,9.5E5,1.2E6,9.75E6,6.3038364E-2,3.45E6,5.535E2,-5.950286E-2,4.5E0,-8.922963E-2,1.55E6,2.5E0,-6.541731E-2,6.881838E-2,-1.4509787E-2,2.9002985E-2,9.717493E-2,1.35E6,6.5E5,-8.361384E-2,3E6,1.5E5,7.3943414E-2,1.00415766E-1,2.0917526E-2,-4.382439E-2,3.4434315E-2,7.15E6,1.025E7,-4.606248E-2,3.3303097E-2,-2.4355404E-4,9.6009694E-2,-9.2241846E-2,1.22305285E-2],"split_indices":[4,3,5,1,0,6,7,2,5,2,0,2,4,0,0,0,8,0,0,0,0,0,0,5,8,0,1,5,0,0,0,0,0,2,2,0,0,0,0,0,0],"split_type":[0,0,0,0,0,0,0,0,0,0,0,0,0,0,0,0,0,0,0,0,0,0,0,0,0,0,0,0,0,0,0,0,0,0,0,0,0,0,0,0,0],"sum_hessian":[8.422559E1,5.041256E1,3.3813034E1,3.619099E1,1.4221569E1,8.015051E0,2.5797983E1,8.188128E0,2.8002861E1,6.4426804E0,1.5723703E0,3.4353745E0,2.2362608E1,1.3327161E0,6.855413E0,2.6252534E0,2.5377607E1,4.9124346E0,1.5302458E0,2.0486913E0,1.3866832E0,1.050301E0,2.1312307E1,4.2264647E0,2.6289482E0,1.3199922E0,2.4057615E1,2.8683958E0,2.0440388E0,2.7131574E0,1.5133073E0,1.1373453E0,1.4916028E0,3.7072673E0,2.0350348E1,1.4288144E0,1.4395814E0,1.3947248E0,2.3125424E0,2.1306722E0,1.8219675E1],"tree_param":{"num_deleted":"0","num_feature":"11","num_nodes":"41","size_leaf_vector":"0"}},{"base_weights":[1.316403E-1,-2.5508583E-1,7.381577E-1,1.918521E-2,-9.422877E-1,3.0865046E-1,9.6243876E-1,-3.095159E-2,5.5005544E-1,8.306863E-2,5.748484E-1,8.5265055E-2,-3.7271416E-1,-2.3773548E-1,4.1696608E-1,7.72512E-1,1.0102781E-1,-5.647815E-1,1.412049E-1,-6.9460684E-1,-1.2968844E-1,-6.4543855E-1,3.4281662E-1,6.674855E-1,-2.8148146E-2,9.371092E-1,4.1507494E-2,2.1661739E-1,-6.96285E-1,-5.0473803E-1,1.7326617E-1,-1.3207363E-1,5.4615176E-1],"categories":[],"categories_nodes":[],"categories_segments":[],"categories_sizes":[],"default_left":[1,1,1,1,0,1,0,1,0,1,1,1,1,1,1,0,0,0,1,0,1,0,0,0,0,0,1,1,0,0,0,0,0],"id":38,"left_children":[1,3,5,7,-1,9,-1,11,-1,13,15,17,19,21,23,-1,-1,-1,25,-1,27,-1,-1,-1,-1,-1,29,31,-1,-1,-1,-1,-1],"loss_changes":[1.9245914E1,9.509489E0,2.7751045E0,1.0010952E0,0E0,6.9761634E-1,0E0,1.4111608E0,0E0,9.440328E-1,4.3939126E-1,1.0517447E0,6.138915E-1,1.3241718E0,4.9026704E-1,0E0,0E0,0E0,1.9775314E0,0E0,1.3982143E0,0E0,0E0,0E0,0E0,0E0,1.7881284E0,6.1314857E-1,0E0,0E0,0E0,0E0,0E0],"parents":[2147483647,0,0,1,1,2,2,3,3,5,5,7,7,9,9,10,10,11,11,12,12,13,13,14,14,18,18,20,20,26,26,27,27],"right_children":[2,4,6,8,-1,10,-1,12,-1,14,16,18,20,22,24,-1,-1,-1,26,-1,28,-1,-1,-1,-1,-1,30,32,-1,-1,-1,-1,-1],"split_conditions":[5.495E2,5E0,9.5E5,2.625E7,-9.422877E-2,5E-1,9.624388E-2,8.45E6,5.5005547E-2,4.5E5,9.95E6,9.5E5,1.56E7,2.5E0,1.2E7,7.72512E-2,1.01027815E-2,-5.647815E-2,1.15E6,-6.946068E-2,8.05E6,-6.454386E-2,3.4281664E-2,6.674855E-2,-2.8148147E-3,9.371092E-2,1.2E6,2.015E7,-6.96285E-2,-5.0473806E-2,1.7326618E-2,-1.3207363E-2,5.4615177E-2],"split_indices":[4,3,5,2,0,9,0,5,0,6,2,2,2,0,2,0,0,0,7,0,1,0,0,0,0,0,5,2,0,0,0,0,0],"split_type":[0,0,0,0,0,0,0,0,0,0,0,0,0,0,0,0,0,0,0,0,0,0,0,0,0,0,0,0,0,0,0,0,0],"sum_hessian":[8.0249725E1,4.935777E1,3.0891954E1,3.597269E1,1.3385079E1,1.141258E1,1.9479374E1,3.3728935E1,2.2437541E0,6.887782E0,4.524798E0,2.5729958E1,7.9989796E0,3.6596444E0,3.2281377E0,2.7480185E0,1.7767793E0,1.3179972E0,2.441196E1,2.6417563E0,5.357223E0,2.0842063E0,1.5754381E0,1.7459172E0,1.4822204E0,1.7824857E0,2.2629475E1,3.7083519E0,1.6488711E0,3.8475428E0,1.878193E1,2.0929475E0,1.6154045E0],"tree_param":{"num_deleted":"0","num_feature":"11","num_nodes":"33","size_leaf_vector":"0"}},{"base_weights":[1.2571156E-1,-2.5331035E-1,7.028682E-1,-6.224124E-3,-9.311269E-1,2.9392686E-1,9.1765624E-1,-7.756119E-2,3.705752E-1,1.3758612E-1,6.9913554E-1,1.4461297E-1,9.5679575E-1,2.7676947E-2,-6.0860693E-1,6.8547815E-1,-8.721406E-2,4.7911808E-1,-1.5234852E-1,-7.033475E-2,7.693876E-1,-7.9779863E-1,-1.2960596E-1,-4.2820022E-1,2.822982E-1,-9.499646E-2,7.438073E-1,-4.3700185E-1,1.605176E-1,8.8035904E-2,-4.4968167E-1,-6.965017E-1,9.253496E-2,5.737213E-1,-2.2760858E-1,-4.821006E-2,4.8351872E-1,-6.04886E-1,8.182501E-2],"categories":[],"categories_nodes":[],"categories_segments":[],"categories_sizes":[],"default_left":[1,1,1,1,0,1,1,1,1,1,0,0,0,1,1,0,1,1,1,1,0,0,0,0,0,0,0,1,1,1,1,0,0,0,0,0,0,0,0],"id":39,"left_children":[1,3,5,7,-1,9,11,13,15,17,-1,-1,-1,19,21,-1,23,25,27,29,-1,-1,-1,-1,-1,-1,-1,31,33,35,37,-1,-1,-1,-1,-1,-1,-1,-1],"loss_changes":[1.7149694E1,7.9603014E0,2.4547806E0,9.927742E-1,0E0,6.7368937E-1,4.6269608E-1,1.7483342E0,9.077595E-1,1.0646262E0,0E0,0E0,0E0,2.0034344E0,3.6492467E-1,0E0,5.347061E-1,8.0604327E-1,6.200832E-1,1.5175542E0,0E0,0E0,0E0,0E0,0E0,0E0,0E0,5.4566705E-1,7.1965545E-1,1.0035335E0,6.607045E-1,0E0,0E0,0E0,0E0,0E0,0E0,0E0,0E0],"parents":[2147483647,0,0,1,1,2,2,3,3,5,5,6,6,7,7,8,8,9,9,13,13,14,14,16,16,17,17,18,18,19,19,27,27,28,28,29,29,30,30],"right_children":[2,4,6,8,-1,10,12,14,16,18,-1,-1,-1,20,22,-1,24,26,28,30,-1,-1,-1,-1,-1,-1,-1,32,34,36,38,-1,-1,-1,-1,-1,-1,-1,-1],"split_conditions":[5.455E2,5E0,9.5E5,2.32E7,-9.311269E-2,1.85E6,5.495E2,6.15E6,8.45E6,3.15E6,6.991356E-2,1.4461297E-2,9.567957E-2,1.605E7,2.045E7,6.8547815E-2,2.725E7,7.5E5,1.8E6,3.75E6,7.693876E-2,-7.977986E-2,-1.2960597E-2,-4.282002E-2,2.8229821E-2,-9.499646E-3,7.438073E-2,1.1E1,1.3E1,4.1E6,1.455E7,-6.9650166E-2,9.253496E-3,5.737213E-2,-2.2760859E-2,-4.8210057E-3,4.8351873E-2,-6.04886E-2,8.182501E-3],"split_indices":[4,3,5,2,0,6,4,1,1,2,0,0,0,2,2,0,2,7,8,6,0,0,0,0,0,0,0,3,3,5,2,0,0,0,0,0,0,0,0],"split_type":[0,0,0,0,0,0,0,0,0,0,0,0,0,0,0,0,0,0,0,0,0,0,0,0,0,0,0,0,0,0,0,0,0,0,0,0,0,0,0],"sum_hessian":[7.65829E1,4.656471E1,3.001819E1,3.4864605E1,1.1700103E1,1.1152692E1,1.8865498E1,2.9982386E1,4.8822207E0,9.014278E0,2.1384144E0,1.1353834E0,1.7730114E1,2.5814556E1,4.167828E0,2.597851E0,2.2843697E0,3.8392656E0,5.1750126E0,2.3601025E1,2.2135324E0,2.5106468E0,1.6571813E0,1.1054418E0,1.1789279E0,1.4138051E0,2.4254606E0,2.5019274E0,2.673085E0,1.7191715E1,6.40931E0,1.467483E0,1.0344443E0,1.0631068E0,1.6099782E0,1.3439748E1,3.7519672E0,4.8538785E0,1.5554316E0],"tree_param":{"num_deleted":"0","num_feature":"11","num_nodes":"39","size_leaf_vector":"0"}},{"base_weights":[1.21145025E-1,-2.3848246E-1,6.8382984E-1,-4.8738355E-3,-9.2330545E-1,2.8134537E-1,9.075737E-1,-4.58627E-2,5.9722745E-1,4.9825868E-1,2.5537135E-2,1.3660644E-1,9.50877E-1,1.1241785E-2,-6.504006E-1,-3.4913556E-3,7.931343E-1,-3.7491488E-1,4.8581117E-1,-6.43486E-2,5.7977945E-1,2.4880406E-1,-2.964349E-1,-5.9962755E-1,1.4079134E-1,8.33336E-2,6.1806995E-1,6.965264E-2,-4.7243458E-1,6.879879E-1,1.8022811E-1,-9.976757E-2,4.6231318E-1,-6.1630297E-1,6.3778915E-2],"categories":[],"categories_nodes":[],"categories_segments":[],"categories_sizes":[],"default_left":[1,1,1,1,0,1,1,1,0,1,1,0,0,